<?xml version="1.0"?>
<MethodSetup Method="BDT::BDTG_LS">
  <GeneralInfo>
    <Info name="TMVA Release" value="4.2.1 [262657]"/>
    <Info name="ROOT Release" value="6.22/00 [398848]"/>
    <Info name="Creator" value="mmekosh"/>
    <Info name="Date" value="Sat Sep  5 14:21:00 2020"/>
    <Info name="Host" value="Linux d13cdd3d3a72 4.15.0-1083-azure #93~16.04.1-Ubuntu SMP Thu May 7 18:39:44 UTC 2020 x86_64 x86_64 x86_64 GNU/Linux"/>
    <Info name="Dir" value="/home/mmekosh/documents/dataScience/Titanic-on-ROOT"/>
    <Info name="Training events" value="445"/>
    <Info name="TrainingTime" value="3.35290432e-02"/>
    <Info name="AnalysisType" value="Regression"/>
  </GeneralInfo>
  <Options>
    <Option name="V" modified="Yes">False</Option>
    <Option name="VerbosityLevel" modified="No">Default</Option>
    <Option name="VarTransform" modified="No">None</Option>
    <Option name="H" modified="Yes">False</Option>
    <Option name="CreateMVAPdfs" modified="No">False</Option>
    <Option name="IgnoreNegWeightsInTraining" modified="No">False</Option>
    <Option name="NTrees" modified="Yes">64</Option>
    <Option name="MaxDepth" modified="Yes">4</Option>
    <Option name="MinNodeSize" modified="No">0.2%</Option>
    <Option name="nCuts" modified="Yes">20</Option>
    <Option name="BoostType" modified="Yes">Grad</Option>
    <Option name="AdaBoostR2Loss" modified="No">quadratic</Option>
    <Option name="UseBaggedBoost" modified="No">False</Option>
    <Option name="Shrinkage" modified="Yes">3.000000e-01</Option>
    <Option name="AdaBoostBeta" modified="No">5.000000e-01</Option>
    <Option name="UseRandomisedTrees" modified="No">False</Option>
    <Option name="UseNvars" modified="No">2</Option>
    <Option name="UsePoissonNvars" modified="No">True</Option>
    <Option name="BaggedSampleFraction" modified="No">6.000000e-01</Option>
    <Option name="UseYesNoLeaf" modified="No">False</Option>
    <Option name="NegWeightTreatment" modified="No">pray</Option>
    <Option name="Css" modified="No">1.000000e+00</Option>
    <Option name="Cts_sb" modified="No">1.000000e+00</Option>
    <Option name="Ctb_ss" modified="No">1.000000e+00</Option>
    <Option name="Cbb" modified="No">1.000000e+00</Option>
    <Option name="NodePurityLimit" modified="No">5.000000e-01</Option>
    <Option name="SeparationType" modified="No">regressionvariance</Option>
    <Option name="RegressionLossFunctionBDTG" modified="Yes">leastsquares</Option>
    <Option name="HuberQuantile" modified="No">7.000000e-01</Option>
    <Option name="DoBoostMonitor" modified="No">False</Option>
    <Option name="UseFisherCuts" modified="No">False</Option>
    <Option name="MinLinCorrForFisher" modified="No">8.000000e-01</Option>
    <Option name="UseExclusiveVars" modified="No">False</Option>
    <Option name="DoPreselection" modified="No">False</Option>
    <Option name="SigToBkgFraction" modified="No">1.000000e+00</Option>
    <Option name="PruneMethod" modified="No">nopruning</Option>
    <Option name="PruneStrength" modified="No">0.000000e+00</Option>
    <Option name="PruningValFraction" modified="No">5.000000e-01</Option>
    <Option name="SkipNormalization" modified="No">False</Option>
    <Option name="nEventsMin" modified="No">0</Option>
    <Option name="UseBaggedGrad" modified="No">False</Option>
    <Option name="GradBaggingFraction" modified="No">6.000000e-01</Option>
    <Option name="UseNTrainEvents" modified="No">0</Option>
    <Option name="NNodesMax" modified="No">0</Option>
  </Options>
  <Variables NVar="5">
    <Variable VarIndex="0" Expression="Sex" Label="Sex" Title="Sex" Unit="" Internal="Sex" Type="F" Min="0.00000000e+00" Max="1.00000000e+00"/>
    <Variable VarIndex="1" Expression="Age" Label="Age" Title="Age" Unit="" Internal="Age" Type="F" Min="6.70000017e-01" Max="8.00000000e+01"/>
    <Variable VarIndex="2" Expression="SibSp" Label="SibSp" Title="SibSp" Unit="" Internal="SibSp" Type="F" Min="0.00000000e+00" Max="8.00000000e+00"/>
    <Variable VarIndex="3" Expression="Parch" Label="Parch" Title="Parch" Unit="" Internal="Parch" Type="F" Min="0.00000000e+00" Max="5.00000000e+00"/>
    <Variable VarIndex="4" Expression="Fare" Label="Fare" Title="Fare" Unit="" Internal="Fare" Type="F" Min="0.00000000e+00" Max="5.12329224e+02"/>
  </Variables>
  <Spectators NSpec="0"/>
  <Classes NClass="1">
    <Class Name="Regression" Index="0"/>
  </Classes>
  <Targets NTrgt="1">
    <Target TargetIndex="0" Expression="Survived" Label="Survived" Title="Survived" Unit="" Internal="Survived" Type="F" Min="0.00000000e+00" Max="1.00000000e+00"/>
  </Targets>
  <Transformations NTransformations="0"/>
  <MVAPdfs/>
  <Weights NTrees="64" AnalysisType="1">
    <BinaryTree type="DecisionTree" boostWeight="3.8202247191011235e-01" itree="0">
      <Node pos="s" depth="0" NCoef="0" IVar="0" Cut="4.7619048506021500e-02" cType="1" res="-9.7108694419034691e-09" rms="4.8588198423385620e-01" purity="1.0000000000000000e+00" nType="0">
        <Node pos="l" depth="1" NCoef="0" IVar="1" Cut="4.4476189613342285e+00" cType="1" res="0.0000000000000000e+00" rms="0.0000000000000000e+00" purity="1.0000000000000000e+00" nType="0">
          <Node pos="l" depth="2" NCoef="0" IVar="2" Cut="1.1428571939468384e+00" cType="1" res="0.0000000000000000e+00" rms="0.0000000000000000e+00" purity="1.0000000000000000e+00" nType="0">
            <Node pos="l" depth="3" NCoef="0" IVar="-1" Cut="0.0000000000000000e+00" cType="1" res="1.8539325892925262e-01" rms="0.0000000000000000e+00" purity="1.0000000000000000e+00" nType="-99"/>
            <Node pos="r" depth="3" NCoef="0" IVar="-1" Cut="0.0000000000000000e+00" cType="1" res="-1.1460673809051514e-01" rms="0.0000000000000000e+00" purity="1.0000000000000000e+00" nType="-99"/>
          </Node>
          <Node pos="r" depth="2" NCoef="0" IVar="4" Cut="2.4396629333496094e+01" cType="1" res="0.0000000000000000e+00" rms="0.0000000000000000e+00" purity="1.0000000000000000e+00" nType="0">
            <Node pos="l" depth="3" NCoef="0" IVar="3" Cut="9.5238097012042999e-02" cType="1" res="0.0000000000000000e+00" rms="0.0000000000000000e+00" purity="1.0000000000000000e+00" nType="0">
              <Node pos="l" depth="4" NCoef="0" IVar="-1" Cut="0.0000000000000000e+00" cType="1" res="-8.3961583673954010e-02" rms="3.0284616351127625e-01" purity="1.0000000000000000e+00" nType="-99"/>
              <Node pos="r" depth="4" NCoef="0" IVar="-1" Cut="0.0000000000000000e+00" cType="1" res="5.2059926092624664e-02" rms="4.9690398573875427e-01" purity="1.0000000000000000e+00" nType="-99"/>
            </Node>
            <Node pos="r" depth="3" NCoef="0" IVar="3" Cut="2.3809523880481720e-01" cType="1" res="0.0000000000000000e+00" rms="0.0000000000000000e+00" purity="1.0000000000000000e+00" nType="0">
              <Node pos="l" depth="4" NCoef="0" IVar="-1" Cut="0.0000000000000000e+00" cType="1" res="-1.4606741257011890e-02" rms="4.7140449285507202e-01" purity="1.0000000000000000e+00" nType="-99"/>
              <Node pos="r" depth="4" NCoef="0" IVar="-1" Cut="0.0000000000000000e+00" cType="1" res="-9.0606741607189178e-02" rms="2.7129319310188293e-01" purity="1.0000000000000000e+00" nType="-99"/>
            </Node>
          </Node>
        </Node>
        <Node pos="r" depth="1" NCoef="0" IVar="2" Cut="2.2857143878936768e+00" cType="1" res="0.0000000000000000e+00" rms="0.0000000000000000e+00" purity="1.0000000000000000e+00" nType="0">
          <Node pos="l" depth="2" NCoef="0" IVar="4" Cut="1.8922618865966797e+01" cType="1" res="0.0000000000000000e+00" rms="0.0000000000000000e+00" purity="1.0000000000000000e+00" nType="0">
            <Node pos="l" depth="3" NCoef="0" IVar="2" Cut="9.5238097012042999e-02" cType="1" res="0.0000000000000000e+00" rms="0.0000000000000000e+00" purity="1.0000000000000000e+00" nType="0">
              <Node pos="l" depth="4" NCoef="0" IVar="-1" Cut="0.0000000000000000e+00" cType="1" res="9.8726592957973480e-02" rms="4.5324617624282837e-01" purity="1.0000000000000000e+00" nType="-99"/>
              <Node pos="r" depth="4" NCoef="0" IVar="-1" Cut="0.0000000000000000e+00" cType="1" res="1.8726591020822525e-02" rms="4.9690398573875427e-01" purity="1.0000000000000000e+00" nType="-99"/>
            </Node>
            <Node pos="r" depth="3" NCoef="0" IVar="3" Cut="1.1904761791229248e+00" cType="1" res="0.0000000000000000e+00" rms="0.0000000000000000e+00" purity="1.0000000000000000e+00" nType="0">
              <Node pos="l" depth="4" NCoef="0" IVar="-1" Cut="0.0000000000000000e+00" cType="1" res="1.7616249620914459e-01" rms="1.7269188165664673e-01" purity="1.0000000000000000e+00" nType="-99"/>
              <Node pos="r" depth="4" NCoef="0" IVar="-1" Cut="0.0000000000000000e+00" cType="1" res="1.0205992311239243e-01" rms="4.4790318608283997e-01" purity="1.0000000000000000e+00" nType="-99"/>
            </Node>
          </Node>
          <Node pos="r" depth="2" NCoef="0" IVar="3" Cut="9.5238097012042999e-02" cType="1" res="0.0000000000000000e+00" rms="0.0000000000000000e+00" purity="1.0000000000000000e+00" nType="0">
            <Node pos="l" depth="3" NCoef="0" IVar="-1" Cut="0.0000000000000000e+00" cType="1" res="1.8539325892925262e-01" rms="0.0000000000000000e+00" purity="1.0000000000000000e+00" nType="-99"/>
            <Node pos="r" depth="3" NCoef="0" IVar="4" Cut="7.8676193237304688e+01" cType="1" res="0.0000000000000000e+00" rms="0.0000000000000000e+00" purity="1.0000000000000000e+00" nType="0">
              <Node pos="l" depth="4" NCoef="0" IVar="-1" Cut="0.0000000000000000e+00" cType="1" res="-1.1460673809051514e-01" rms="0.0000000000000000e+00" purity="1.0000000000000000e+00" nType="-99"/>
              <Node pos="r" depth="4" NCoef="0" IVar="-1" Cut="0.0000000000000000e+00" cType="1" res="1.8539325892925262e-01" rms="0.0000000000000000e+00" purity="1.0000000000000000e+00" nType="-99"/>
            </Node>
          </Node>
        </Node>
      </Node>
    </BinaryTree>
    <BinaryTree type="DecisionTree" boostWeight="1.0000000000000000e+00" itree="1">
      <Node pos="s" depth="0" NCoef="0" IVar="0" Cut="4.7619048506021500e-02" cType="1" res="-4.3531480642400311e-09" rms="4.2006161808967590e-01" purity="1.0000000000000000e+00" nType="0">
        <Node pos="l" depth="1" NCoef="0" IVar="1" Cut="8.2252378463745117e+00" cType="1" res="0.0000000000000000e+00" rms="0.0000000000000000e+00" purity="1.0000000000000000e+00" nType="0">
          <Node pos="l" depth="2" NCoef="0" IVar="2" Cut="1.1428571939468384e+00" cType="1" res="0.0000000000000000e+00" rms="0.0000000000000000e+00" purity="1.0000000000000000e+00" nType="0">
            <Node pos="l" depth="3" NCoef="0" IVar="1" Cut="3.2080953121185303e+00" cType="1" res="0.0000000000000000e+00" rms="0.0000000000000000e+00" purity="1.0000000000000000e+00" nType="0">
              <Node pos="l" depth="4" NCoef="0" IVar="-1" Cut="0.0000000000000000e+00" cType="1" res="1.2977528572082520e-01" rms="0.0000000000000000e+00" purity="1.0000000000000000e+00" nType="-99"/>
              <Node pos="r" depth="4" NCoef="0" IVar="-1" Cut="0.0000000000000000e+00" cType="1" res="1.6977527737617493e-01" rms="0.0000000000000000e+00" purity="1.0000000000000000e+00" nType="-99"/>
            </Node>
            <Node pos="r" depth="3" NCoef="0" IVar="1" Cut="4.2857141494750977e+00" cType="1" res="0.0000000000000000e+00" rms="0.0000000000000000e+00" purity="1.0000000000000000e+00" nType="0">
              <Node pos="l" depth="4" NCoef="0" IVar="-1" Cut="0.0000000000000000e+00" cType="1" res="-8.0224722623825073e-02" rms="0.0000000000000000e+00" purity="1.0000000000000000e+00" nType="-99"/>
              <Node pos="r" depth="4" NCoef="0" IVar="-1" Cut="0.0000000000000000e+00" cType="1" res="-8.7424717843532562e-02" rms="0.0000000000000000e+00" purity="1.0000000000000000e+00" nType="-99"/>
            </Node>
          </Node>
          <Node pos="r" depth="2" NCoef="0" IVar="4" Cut="2.6836291503906250e+02" cType="1" res="0.0000000000000000e+00" rms="0.0000000000000000e+00" purity="1.0000000000000000e+00" nType="0">
            <Node pos="l" depth="3" NCoef="0" IVar="4" Cut="1.2523809432983398e+01" cType="1" res="0.0000000000000000e+00" rms="0.0000000000000000e+00" purity="1.0000000000000000e+00" nType="0">
              <Node pos="l" depth="4" NCoef="0" IVar="-1" Cut="0.0000000000000000e+00" cType="1" res="-6.1095271259546280e-02" rms="2.9576647281646729e-01" purity="1.0000000000000000e+00" nType="-99"/>
              <Node pos="r" depth="4" NCoef="0" IVar="-1" Cut="0.0000000000000000e+00" cType="1" res="-2.9282784089446068e-02" rms="4.1470685601234436e-01" purity="1.0000000000000000e+00" nType="-99"/>
            </Node>
            <Node pos="r" depth="3" NCoef="0" IVar="-1" Cut="0.0000000000000000e+00" cType="1" res="1.8977528810501099e-01" rms="0.0000000000000000e+00" purity="1.0000000000000000e+00" nType="-99"/>
          </Node>
        </Node>
        <Node pos="r" depth="1" NCoef="0" IVar="2" Cut="2.2857143878936768e+00" cType="1" res="0.0000000000000000e+00" rms="0.0000000000000000e+00" purity="1.0000000000000000e+00" nType="0">
          <Node pos="l" depth="2" NCoef="0" IVar="4" Cut="1.8922618865966797e+01" cType="1" res="0.0000000000000000e+00" rms="0.0000000000000000e+00" purity="1.0000000000000000e+00" nType="0">
            <Node pos="l" depth="3" NCoef="0" IVar="1" Cut="6.9047617912292480e+00" cType="1" res="0.0000000000000000e+00" rms="0.0000000000000000e+00" purity="1.0000000000000000e+00" nType="0">
              <Node pos="l" depth="4" NCoef="0" IVar="-1" Cut="0.0000000000000000e+00" cType="1" res="1.6057528555393219e-01" rms="3.1999994069337845e-02" purity="1.0000000000000000e+00" nType="-99"/>
              <Node pos="r" depth="4" NCoef="0" IVar="-1" Cut="0.0000000000000000e+00" cType="1" res="4.3844245374202728e-02" rms="4.8128494620323181e-01" purity="1.0000000000000000e+00" nType="-99"/>
            </Node>
            <Node pos="r" depth="3" NCoef="0" IVar="3" Cut="1.1904761791229248e+00" cType="1" res="0.0000000000000000e+00" rms="0.0000000000000000e+00" purity="1.0000000000000000e+00" nType="0">
              <Node pos="l" depth="4" NCoef="0" IVar="-1" Cut="0.0000000000000000e+00" cType="1" res="1.2331373989582062e-01" rms="1.7269188165664673e-01" purity="1.0000000000000000e+00" nType="-99"/>
              <Node pos="r" depth="4" NCoef="0" IVar="-1" Cut="0.0000000000000000e+00" cType="1" res="7.1441948413848877e-02" rms="4.4790321588516235e-01" purity="1.0000000000000000e+00" nType="-99"/>
            </Node>
          </Node>
          <Node pos="r" depth="2" NCoef="0" IVar="3" Cut="9.5238097012042999e-02" cType="1" res="0.0000000000000000e+00" rms="0.0000000000000000e+00" purity="1.0000000000000000e+00" nType="0">
            <Node pos="l" depth="3" NCoef="0" IVar="-1" Cut="0.0000000000000000e+00" cType="1" res="1.2977528572082520e-01" rms="0.0000000000000000e+00" purity="1.0000000000000000e+00" nType="-99"/>
            <Node pos="r" depth="3" NCoef="0" IVar="4" Cut="7.8676193237304688e+01" cType="1" res="0.0000000000000000e+00" rms="0.0000000000000000e+00" purity="1.0000000000000000e+00" nType="0">
              <Node pos="l" depth="4" NCoef="0" IVar="-1" Cut="0.0000000000000000e+00" cType="1" res="-8.0224722623825073e-02" rms="0.0000000000000000e+00" purity="1.0000000000000000e+00" nType="-99"/>
              <Node pos="r" depth="4" NCoef="0" IVar="-1" Cut="0.0000000000000000e+00" cType="1" res="1.2977528572082520e-01" rms="0.0000000000000000e+00" purity="1.0000000000000000e+00" nType="-99"/>
            </Node>
          </Node>
        </Node>
      </Node>
    </BinaryTree>
    <BinaryTree type="DecisionTree" boostWeight="1.0000000000000000e+00" itree="2">
      <Node pos="s" depth="0" NCoef="0" IVar="0" Cut="4.7619048506021500e-02" cType="1" res="2.3774886503957759e-09" rms="3.8330864906311035e-01" purity="1.0000000000000000e+00" nType="0">
        <Node pos="l" depth="1" NCoef="0" IVar="1" Cut="7.6222381591796875e+01" cType="1" res="0.0000000000000000e+00" rms="0.0000000000000000e+00" purity="1.0000000000000000e+00" nType="0">
          <Node pos="l" depth="2" NCoef="0" IVar="1" Cut="7.6538095474243164e+00" cType="1" res="0.0000000000000000e+00" rms="0.0000000000000000e+00" purity="1.0000000000000000e+00" nType="0">
            <Node pos="l" depth="3" NCoef="0" IVar="2" Cut="1.1428571939468384e+00" cType="1" res="0.0000000000000000e+00" rms="0.0000000000000000e+00" purity="1.0000000000000000e+00" nType="0">
              <Node pos="l" depth="4" NCoef="0" IVar="-1" Cut="0.0000000000000000e+00" cType="1" res="9.4842694699764252e-02" rms="3.2659873366355896e-02" purity="1.0000000000000000e+00" nType="-99"/>
              <Node pos="r" depth="4" NCoef="0" IVar="-1" Cut="0.0000000000000000e+00" cType="1" res="-5.7165302336215973e-02" rms="6.7200004123151302e-03" purity="1.0000000000000000e+00" nType="-99"/>
            </Node>
            <Node pos="r" depth="3" NCoef="0" IVar="2" Cut="1.1428571939468384e+00" cType="1" res="0.0000000000000000e+00" rms="0.0000000000000000e+00" purity="1.0000000000000000e+00" nType="0">
              <Node pos="l" depth="4" NCoef="0" IVar="-1" Cut="0.0000000000000000e+00" cType="1" res="-3.0815919861197472e-02" rms="3.5930195450782776e-01" purity="1.0000000000000000e+00" nType="-99"/>
              <Node pos="r" depth="4" NCoef="0" IVar="-1" Cut="0.0000000000000000e+00" cType="1" res="-8.1030353903770447e-02" rms="3.7436958402395248e-02" purity="1.0000000000000000e+00" nType="-99"/>
            </Node>
          </Node>
          <Node pos="r" depth="2" NCoef="0" IVar="-1" Cut="0.0000000000000000e+00" cType="1" res="1.9856011867523193e-01" rms="0.0000000000000000e+00" purity="1.0000000000000000e+00" nType="-99"/>
        </Node>
        <Node pos="r" depth="1" NCoef="0" IVar="2" Cut="1.1428571939468384e+00" cType="1" res="0.0000000000000000e+00" rms="0.0000000000000000e+00" purity="1.0000000000000000e+00" nType="0">
          <Node pos="l" depth="2" NCoef="0" IVar="4" Cut="2.7776189804077148e+01" cType="1" res="0.0000000000000000e+00" rms="0.0000000000000000e+00" purity="1.0000000000000000e+00" nType="0">
            <Node pos="l" depth="3" NCoef="0" IVar="1" Cut="6.9047617912292480e+00" cType="1" res="0.0000000000000000e+00" rms="0.0000000000000000e+00" purity="1.0000000000000000e+00" nType="0">
              <Node pos="l" depth="4" NCoef="0" IVar="-1" Cut="0.0000000000000000e+00" cType="1" res="1.1080712080001831e-01" rms="4.4828638434410095e-02" purity="1.0000000000000000e+00" nType="-99"/>
              <Node pos="r" depth="4" NCoef="0" IVar="-1" Cut="0.0000000000000000e+00" cType="1" res="4.0206126868724823e-02" rms="4.5624735951423645e-01" purity="1.0000000000000000e+00" nType="-99"/>
            </Node>
            <Node pos="r" depth="3" NCoef="0" IVar="1" Cut="4.9047617912292480e+00" cType="1" res="0.0000000000000000e+00" rms="0.0000000000000000e+00" purity="1.0000000000000000e+00" nType="0">
              <Node pos="l" depth="4" NCoef="0" IVar="-1" Cut="0.0000000000000000e+00" cType="1" res="-1.6657302156090736e-02" rms="5.0000000000000000e-01" purity="1.0000000000000000e+00" nType="-99"/>
              <Node pos="r" depth="4" NCoef="0" IVar="-1" Cut="0.0000000000000000e+00" cType="1" res="9.4114191830158234e-02" rms="1.2849809229373932e-01" purity="1.0000000000000000e+00" nType="-99"/>
            </Node>
          </Node>
          <Node pos="r" depth="2" NCoef="0" IVar="3" Cut="1.0476191043853760e+00" cType="1" res="0.0000000000000000e+00" rms="0.0000000000000000e+00" purity="1.0000000000000000e+00" nType="0">
            <Node pos="l" depth="3" NCoef="0" IVar="4" Cut="1.8504762649536133e+01" cType="1" res="0.0000000000000000e+00" rms="0.0000000000000000e+00" purity="1.0000000000000000e+00" nType="0">
              <Node pos="l" depth="4" NCoef="0" IVar="-1" Cut="0.0000000000000000e+00" cType="1" res="-2.1267648786306381e-02" rms="3.7370115518569946e-01" purity="1.0000000000000000e+00" nType="-99"/>
              <Node pos="r" depth="4" NCoef="0" IVar="-1" Cut="0.0000000000000000e+00" cType="1" res="5.7035002857446671e-02" rms="2.1789756417274475e-01" purity="1.0000000000000000e+00" nType="-99"/>
            </Node>
            <Node pos="r" depth="3" NCoef="0" IVar="4" Cut="7.2680953979492188e+01" cType="1" res="0.0000000000000000e+00" rms="0.0000000000000000e+00" purity="1.0000000000000000e+00" nType="0">
              <Node pos="l" depth="4" NCoef="0" IVar="-1" Cut="0.0000000000000000e+00" cType="1" res="-8.0712862312793732e-02" rms="1.5313079953193665e-01" purity="1.0000000000000000e+00" nType="-99"/>
              <Node pos="r" depth="4" NCoef="0" IVar="-1" Cut="0.0000000000000000e+00" cType="1" res="1.1209269613027573e-01" rms="7.0833340287208557e-02" purity="1.0000000000000000e+00" nType="-99"/>
            </Node>
          </Node>
        </Node>
      </Node>
    </BinaryTree>
    <BinaryTree type="DecisionTree" boostWeight="1.0000000000000000e+00" itree="3">
      <Node pos="s" depth="0" NCoef="0" IVar="0" Cut="4.7619048506021500e-02" cType="1" res="3.5160044320470263e-10" rms="3.6199888586997986e-01" purity="1.0000000000000000e+00" nType="0">
        <Node pos="l" depth="1" NCoef="0" IVar="4" Cut="2.4396629333496094e+01" cType="1" res="0.0000000000000000e+00" rms="0.0000000000000000e+00" purity="1.0000000000000000e+00" nType="0">
          <Node pos="l" depth="2" NCoef="0" IVar="3" Cut="9.5238097012042999e-02" cType="1" res="0.0000000000000000e+00" rms="0.0000000000000000e+00" purity="1.0000000000000000e+00" nType="0">
            <Node pos="l" depth="3" NCoef="0" IVar="1" Cut="3.2571430206298828e+01" cType="1" res="0.0000000000000000e+00" rms="0.0000000000000000e+00" purity="1.0000000000000000e+00" nType="0">
              <Node pos="l" depth="4" NCoef="0" IVar="-1" Cut="0.0000000000000000e+00" cType="1" res="-2.6975391432642937e-02" rms="3.2520860433578491e-01" purity="1.0000000000000000e+00" nType="-99"/>
              <Node pos="r" depth="4" NCoef="0" IVar="-1" Cut="0.0000000000000000e+00" cType="1" res="-5.5651109665632248e-02" rms="1.6405819356441498e-01" purity="1.0000000000000000e+00" nType="-99"/>
            </Node>
            <Node pos="r" depth="3" NCoef="0" IVar="1" Cut="3.1620000839233398e+01" cType="1" res="0.0000000000000000e+00" rms="0.0000000000000000e+00" purity="1.0000000000000000e+00" nType="0">
              <Node pos="l" depth="4" NCoef="0" IVar="-1" Cut="0.0000000000000000e+00" cType="1" res="7.0447720587253571e-02" rms="3.6374244093894958e-01" purity="1.0000000000000000e+00" nType="-99"/>
              <Node pos="r" depth="4" NCoef="0" IVar="-1" Cut="0.0000000000000000e+00" cType="1" res="-1.0742323845624924e-01" rms="1.5906244516372681e-02" purity="1.0000000000000000e+00" nType="-99"/>
            </Node>
          </Node>
          <Node pos="r" depth="2" NCoef="0" IVar="2" Cut="1.1428571939468384e+00" cType="1" res="0.0000000000000000e+00" rms="0.0000000000000000e+00" purity="1.0000000000000000e+00" nType="0">
            <Node pos="l" depth="3" NCoef="0" IVar="1" Cut="5.7428569793701172e+01" cType="1" res="0.0000000000000000e+00" rms="0.0000000000000000e+00" purity="1.0000000000000000e+00" nType="0">
              <Node pos="l" depth="4" NCoef="0" IVar="-1" Cut="0.0000000000000000e+00" cType="1" res="1.3703901320695877e-02" rms="4.5302358269691467e-01" purity="1.0000000000000000e+00" nType="-99"/>
              <Node pos="r" depth="4" NCoef="0" IVar="-1" Cut="0.0000000000000000e+00" cType="1" res="-5.7596709579229355e-02" rms="2.4975210428237915e-01" purity="1.0000000000000000e+00" nType="-99"/>
            </Node>
            <Node pos="r" depth="3" NCoef="0" IVar="2" Cut="2.2857143878936768e+00" cType="1" res="0.0000000000000000e+00" rms="0.0000000000000000e+00" purity="1.0000000000000000e+00" nType="0">
              <Node pos="l" depth="4" NCoef="0" IVar="-1" Cut="0.0000000000000000e+00" cType="1" res="-7.7130779623985291e-02" rms="0.0000000000000000e+00" purity="1.0000000000000000e+00" nType="-99"/>
              <Node pos="r" depth="4" NCoef="0" IVar="-1" Cut="0.0000000000000000e+00" cType="1" res="-4.9066860228776932e-02" rms="2.4011410772800446e-02" purity="1.0000000000000000e+00" nType="-99"/>
            </Node>
          </Node>
        </Node>
        <Node pos="r" depth="1" NCoef="0" IVar="2" Cut="1.1428571939468384e+00" cType="1" res="0.0000000000000000e+00" rms="0.0000000000000000e+00" purity="1.0000000000000000e+00" nType="0">
          <Node pos="l" depth="2" NCoef="0" IVar="4" Cut="2.7776189804077148e+01" cType="1" res="0.0000000000000000e+00" rms="0.0000000000000000e+00" purity="1.0000000000000000e+00" nType="0">
            <Node pos="l" depth="3" NCoef="0" IVar="1" Cut="4.8238094329833984e+01" cType="1" res="0.0000000000000000e+00" rms="0.0000000000000000e+00" purity="1.0000000000000000e+00" nType="0">
              <Node pos="l" depth="4" NCoef="0" IVar="-1" Cut="0.0000000000000000e+00" cType="1" res="2.7976043522357941e-02" rms="4.4516962766647339e-01" purity="1.0000000000000000e+00" nType="-99"/>
              <Node pos="r" depth="4" NCoef="0" IVar="-1" Cut="0.0000000000000000e+00" cType="1" res="1.0987565666437149e-01" rms="7.2699315845966339e-02" purity="1.0000000000000000e+00" nType="-99"/>
            </Node>
            <Node pos="r" depth="3" NCoef="0" IVar="3" Cut="2.1428570747375488e+00" cType="1" res="0.0000000000000000e+00" rms="0.0000000000000000e+00" purity="1.0000000000000000e+00" nType="0">
              <Node pos="l" depth="4" NCoef="0" IVar="-1" Cut="0.0000000000000000e+00" cType="1" res="6.7183122038841248e-02" rms="1.1732923984527588e-01" purity="1.0000000000000000e+00" nType="-99"/>
              <Node pos="r" depth="4" NCoef="0" IVar="-1" Cut="0.0000000000000000e+00" cType="1" res="-4.4891562312841415e-02" rms="5.0000000000000000e-01" purity="1.0000000000000000e+00" nType="-99"/>
            </Node>
          </Node>
          <Node pos="r" depth="2" NCoef="0" IVar="3" Cut="1.0476191043853760e+00" cType="1" res="0.0000000000000000e+00" rms="0.0000000000000000e+00" purity="1.0000000000000000e+00" nType="0">
            <Node pos="l" depth="3" NCoef="0" IVar="1" Cut="2.9928571701049805e+01" cType="1" res="0.0000000000000000e+00" rms="0.0000000000000000e+00" purity="1.0000000000000000e+00" nType="0">
              <Node pos="l" depth="4" NCoef="0" IVar="-1" Cut="0.0000000000000000e+00" cType="1" res="1.4833265915513039e-02" rms="2.7855935692787170e-01" purity="1.0000000000000000e+00" nType="-99"/>
              <Node pos="r" depth="4" NCoef="0" IVar="-1" Cut="0.0000000000000000e+00" cType="1" res="8.5477590560913086e-02" rms="3.9151318371295929e-02" purity="1.0000000000000000e+00" nType="-99"/>
            </Node>
            <Node pos="r" depth="3" NCoef="0" IVar="4" Cut="7.2680953979492188e+01" cType="1" res="0.0000000000000000e+00" rms="0.0000000000000000e+00" purity="1.0000000000000000e+00" nType="0">
              <Node pos="l" depth="4" NCoef="0" IVar="-1" Cut="0.0000000000000000e+00" cType="1" res="-5.6499000638723373e-02" rms="1.5313079953193665e-01" purity="1.0000000000000000e+00" nType="-99"/>
              <Node pos="r" depth="4" NCoef="0" IVar="-1" Cut="0.0000000000000000e+00" cType="1" res="7.8464888036251068e-02" rms="7.0833332836627960e-02" purity="1.0000000000000000e+00" nType="-99"/>
            </Node>
          </Node>
        </Node>
      </Node>
    </BinaryTree>
    <BinaryTree type="DecisionTree" boostWeight="1.0000000000000000e+00" itree="4">
      <Node pos="s" depth="0" NCoef="0" IVar="0" Cut="4.7619048506021500e-02" cType="1" res="9.1248686384659550e-10" rms="3.4756204485893250e-01" purity="1.0000000000000000e+00" nType="0">
        <Node pos="l" depth="1" NCoef="0" IVar="1" Cut="7.6222381591796875e+01" cType="1" res="0.0000000000000000e+00" rms="0.0000000000000000e+00" purity="1.0000000000000000e+00" nType="0">
          <Node pos="l" depth="2" NCoef="0" IVar="1" Cut="5.6540477752685547e+01" cType="1" res="0.0000000000000000e+00" rms="0.0000000000000000e+00" purity="1.0000000000000000e+00" nType="0">
            <Node pos="l" depth="3" NCoef="0" IVar="4" Cut="2.6836291503906250e+02" cType="1" res="0.0000000000000000e+00" rms="0.0000000000000000e+00" purity="1.0000000000000000e+00" nType="0">
              <Node pos="l" depth="4" NCoef="0" IVar="-1" Cut="0.0000000000000000e+00" cType="1" res="-1.4048044569790363e-02" rms="3.4289613366127014e-01" purity="1.0000000000000000e+00" nType="-99"/>
              <Node pos="r" depth="4" NCoef="0" IVar="-1" Cut="0.0000000000000000e+00" cType="1" res="1.3797630369663239e-01" rms="0.0000000000000000e+00" purity="1.0000000000000000e+00" nType="-99"/>
            </Node>
            <Node pos="r" depth="3" NCoef="0" IVar="4" Cut="1.5489285469055176e+01" cType="1" res="0.0000000000000000e+00" rms="0.0000000000000000e+00" purity="1.0000000000000000e+00" nType="0">
              <Node pos="l" depth="4" NCoef="0" IVar="-1" Cut="0.0000000000000000e+00" cType="1" res="-4.7535512596368790e-02" rms="1.3775211758911610e-02" purity="1.0000000000000000e+00" nType="-99"/>
              <Node pos="r" depth="4" NCoef="0" IVar="-1" Cut="0.0000000000000000e+00" cType="1" res="-6.8401806056499481e-02" rms="3.4333303570747375e-02" purity="1.0000000000000000e+00" nType="-99"/>
            </Node>
          </Node>
          <Node pos="r" depth="2" NCoef="0" IVar="-1" Cut="0.0000000000000000e+00" cType="1" res="1.5627110004425049e-01" rms="0.0000000000000000e+00" purity="1.0000000000000000e+00" nType="-99"/>
        </Node>
        <Node pos="r" depth="1" NCoef="0" IVar="2" Cut="3.8095238804817200e-01" cType="1" res="0.0000000000000000e+00" rms="0.0000000000000000e+00" purity="1.0000000000000000e+00" nType="0">
          <Node pos="l" depth="2" NCoef="0" IVar="3" Cut="2.1428570747375488e+00" cType="1" res="0.0000000000000000e+00" rms="0.0000000000000000e+00" purity="1.0000000000000000e+00" nType="0">
            <Node pos="l" depth="3" NCoef="0" IVar="1" Cut="1.8714284896850586e+01" cType="1" res="0.0000000000000000e+00" rms="0.0000000000000000e+00" purity="1.0000000000000000e+00" nType="0">
              <Node pos="l" depth="4" NCoef="0" IVar="-1" Cut="0.0000000000000000e+00" cType="1" res="1.7453890293836594e-02" rms="3.9896938204765320e-01" purity="1.0000000000000000e+00" nType="-99"/>
              <Node pos="r" depth="4" NCoef="0" IVar="-1" Cut="0.0000000000000000e+00" cType="1" res="4.6650003641843796e-02" rms="3.2213413715362549e-01" purity="1.0000000000000000e+00" nType="-99"/>
            </Node>
            <Node pos="r" depth="3" NCoef="0" IVar="-1" Cut="0.0000000000000000e+00" cType="1" res="-1.8142409622669220e-01" rms="0.0000000000000000e+00" purity="1.0000000000000000e+00" nType="-99"/>
          </Node>
          <Node pos="r" depth="2" NCoef="0" IVar="3" Cut="2.1428570747375488e+00" cType="1" res="0.0000000000000000e+00" rms="0.0000000000000000e+00" purity="1.0000000000000000e+00" nType="0">
            <Node pos="l" depth="3" NCoef="0" IVar="4" Cut="4.4303600311279297e+01" cType="1" res="0.0000000000000000e+00" rms="0.0000000000000000e+00" purity="1.0000000000000000e+00" nType="0">
              <Node pos="l" depth="4" NCoef="0" IVar="-1" Cut="0.0000000000000000e+00" cType="1" res="2.8719292022287846e-03" rms="3.7859529256820679e-01" purity="1.0000000000000000e+00" nType="-99"/>
              <Node pos="r" depth="4" NCoef="0" IVar="-1" Cut="0.0000000000000000e+00" cType="1" res="3.3526405692100525e-02" rms="1.7191520333290100e-01" purity="1.0000000000000000e+00" nType="-99"/>
            </Node>
            <Node pos="r" depth="3" NCoef="0" IVar="1" Cut="3.8761905670166016e+01" cType="1" res="0.0000000000000000e+00" rms="0.0000000000000000e+00" purity="1.0000000000000000e+00" nType="0">
              <Node pos="l" depth="4" NCoef="0" IVar="-1" Cut="0.0000000000000000e+00" cType="1" res="1.1857590824365616e-01" rms="0.0000000000000000e+00" purity="1.0000000000000000e+00" nType="-99"/>
              <Node pos="r" depth="4" NCoef="0" IVar="-1" Cut="0.0000000000000000e+00" cType="1" res="8.8318161666393280e-02" rms="0.0000000000000000e+00" purity="1.0000000000000000e+00" nType="-99"/>
            </Node>
          </Node>
        </Node>
      </Node>
    </BinaryTree>
    <BinaryTree type="DecisionTree" boostWeight="1.0000000000000000e+00" itree="5">
      <Node pos="s" depth="0" NCoef="0" IVar="0" Cut="4.7619048506021500e-02" cType="1" res="-5.1065779382852838e-10" rms="3.4082299470901489e-01" purity="1.0000000000000000e+00" nType="0">
        <Node pos="l" depth="1" NCoef="0" IVar="1" Cut="7.6222381591796875e+01" cType="1" res="0.0000000000000000e+00" rms="0.0000000000000000e+00" purity="1.0000000000000000e+00" nType="0">
          <Node pos="l" depth="2" NCoef="0" IVar="1" Cut="7.6538095474243164e+00" cType="1" res="0.0000000000000000e+00" rms="0.0000000000000000e+00" purity="1.0000000000000000e+00" nType="0">
            <Node pos="l" depth="3" NCoef="0" IVar="2" Cut="1.1428571939468384e+00" cType="1" res="0.0000000000000000e+00" rms="0.0000000000000000e+00" purity="1.0000000000000000e+00" nType="0">
              <Node pos="l" depth="4" NCoef="0" IVar="-1" Cut="0.0000000000000000e+00" cType="1" res="5.6765619665384293e-02" rms="3.4737639129161835e-02" purity="1.0000000000000000e+00" nType="-99"/>
              <Node pos="r" depth="4" NCoef="0" IVar="-1" Cut="0.0000000000000000e+00" cType="1" res="-2.8252115473151207e-02" rms="4.6582490205764771e-02" purity="1.0000000000000000e+00" nType="-99"/>
            </Node>
            <Node pos="r" depth="3" NCoef="0" IVar="1" Cut="2.6857143402099609e+01" cType="1" res="0.0000000000000000e+00" rms="0.0000000000000000e+00" purity="1.0000000000000000e+00" nType="0">
              <Node pos="l" depth="4" NCoef="0" IVar="-1" Cut="0.0000000000000000e+00" cType="1" res="-2.1992068737745285e-02" rms="2.9346343874931335e-01" purity="1.0000000000000000e+00" nType="-99"/>
              <Node pos="r" depth="4" NCoef="0" IVar="-1" Cut="0.0000000000000000e+00" cType="1" res="-7.0548956282436848e-03" rms="3.6358803510665894e-01" purity="1.0000000000000000e+00" nType="-99"/>
            </Node>
          </Node>
          <Node pos="r" depth="2" NCoef="0" IVar="-1" Cut="0.0000000000000000e+00" cType="1" res="1.0938975960016251e-01" rms="0.0000000000000000e+00" purity="1.0000000000000000e+00" nType="-99"/>
        </Node>
        <Node pos="r" depth="1" NCoef="0" IVar="4" Cut="1.8952381134033203e+01" cType="1" res="0.0000000000000000e+00" rms="0.0000000000000000e+00" purity="1.0000000000000000e+00" nType="0">
          <Node pos="l" depth="2" NCoef="0" IVar="4" Cut="1.6928571701049805e+01" cType="1" res="0.0000000000000000e+00" rms="0.0000000000000000e+00" purity="1.0000000000000000e+00" nType="0">
            <Node pos="l" depth="3" NCoef="0" IVar="4" Cut="1.5278572082519531e+01" cType="1" res="0.0000000000000000e+00" rms="0.0000000000000000e+00" purity="1.0000000000000000e+00" nType="0">
              <Node pos="l" depth="4" NCoef="0" IVar="-1" Cut="0.0000000000000000e+00" cType="1" res="1.1754449224099517e-03" rms="4.6565291285514832e-01" purity="1.0000000000000000e+00" nType="-99"/>
              <Node pos="r" depth="4" NCoef="0" IVar="-1" Cut="0.0000000000000000e+00" cType="1" res="7.7061533927917480e-02" rms="2.9217195510864258e-01" purity="1.0000000000000000e+00" nType="-99"/>
            </Node>
            <Node pos="r" depth="3" NCoef="0" IVar="1" Cut="1.8619047164916992e+01" cType="1" res="0.0000000000000000e+00" rms="0.0000000000000000e+00" purity="1.0000000000000000e+00" nType="0">
              <Node pos="l" depth="4" NCoef="0" IVar="-1" Cut="0.0000000000000000e+00" cType="1" res="-1.3230925798416138e-01" rms="0.0000000000000000e+00" purity="1.0000000000000000e+00" nType="-99"/>
              <Node pos="r" depth="4" NCoef="0" IVar="-1" Cut="0.0000000000000000e+00" cType="1" res="-1.5469422936439514e-01" rms="0.0000000000000000e+00" purity="1.0000000000000000e+00" nType="-99"/>
            </Node>
          </Node>
          <Node pos="r" depth="2" NCoef="0" IVar="2" Cut="2.2857143878936768e+00" cType="1" res="0.0000000000000000e+00" rms="0.0000000000000000e+00" purity="1.0000000000000000e+00" nType="0">
            <Node pos="l" depth="3" NCoef="0" IVar="1" Cut="3.9285713195800781e+01" cType="1" res="0.0000000000000000e+00" rms="0.0000000000000000e+00" purity="1.0000000000000000e+00" nType="0">
              <Node pos="l" depth="4" NCoef="0" IVar="-1" Cut="0.0000000000000000e+00" cType="1" res="3.9943195879459381e-02" rms="1.9746421277523041e-01" purity="1.0000000000000000e+00" nType="-99"/>
              <Node pos="r" depth="4" NCoef="0" IVar="-1" Cut="0.0000000000000000e+00" cType="1" res="7.7468627132475376e-03" rms="2.8591474890708923e-01" purity="1.0000000000000000e+00" nType="-99"/>
            </Node>
            <Node pos="r" depth="3" NCoef="0" IVar="3" Cut="9.5238097012042999e-02" cType="1" res="0.0000000000000000e+00" rms="0.0000000000000000e+00" purity="1.0000000000000000e+00" nType="0">
              <Node pos="l" depth="4" NCoef="0" IVar="-1" Cut="0.0000000000000000e+00" cType="1" res="4.7227337956428528e-02" rms="0.0000000000000000e+00" purity="1.0000000000000000e+00" nType="-99"/>
              <Node pos="r" depth="4" NCoef="0" IVar="-1" Cut="0.0000000000000000e+00" cType="1" res="-2.6292117312550545e-02" rms="9.7220212221145630e-02" purity="1.0000000000000000e+00" nType="-99"/>
            </Node>
          </Node>
        </Node>
      </Node>
    </BinaryTree>
    <BinaryTree type="DecisionTree" boostWeight="1.0000000000000000e+00" itree="6">
      <Node pos="s" depth="0" NCoef="0" IVar="0" Cut="4.7619048506021500e-02" cType="1" res="2.2184312720163746e-10" rms="3.3517459034919739e-01" purity="1.0000000000000000e+00" nType="0">
        <Node pos="l" depth="1" NCoef="0" IVar="4" Cut="2.4396629333496094e+01" cType="1" res="0.0000000000000000e+00" rms="0.0000000000000000e+00" purity="1.0000000000000000e+00" nType="0">
          <Node pos="l" depth="2" NCoef="0" IVar="3" Cut="9.5238097012042999e-02" cType="1" res="0.0000000000000000e+00" rms="0.0000000000000000e+00" purity="1.0000000000000000e+00" nType="0">
            <Node pos="l" depth="3" NCoef="0" IVar="1" Cut="3.2571430206298828e+01" cType="1" res="0.0000000000000000e+00" rms="0.0000000000000000e+00" purity="1.0000000000000000e+00" nType="0">
              <Node pos="l" depth="4" NCoef="0" IVar="-1" Cut="0.0000000000000000e+00" cType="1" res="-1.0386503301560879e-02" rms="3.2447087764739990e-01" purity="1.0000000000000000e+00" nType="-99"/>
              <Node pos="r" depth="4" NCoef="0" IVar="-1" Cut="0.0000000000000000e+00" cType="1" res="-3.1538814306259155e-02" rms="1.6375635564327240e-01" purity="1.0000000000000000e+00" nType="-99"/>
            </Node>
            <Node pos="r" depth="3" NCoef="0" IVar="4" Cut="8.7740383148193359e+00" cType="1" res="0.0000000000000000e+00" rms="0.0000000000000000e+00" purity="1.0000000000000000e+00" nType="0">
              <Node pos="l" depth="4" NCoef="0" IVar="-1" Cut="0.0000000000000000e+00" cType="1" res="-8.8533572852611542e-02" rms="8.1466890871524811e-02" purity="1.0000000000000000e+00" nType="-99"/>
              <Node pos="r" depth="4" NCoef="0" IVar="-1" Cut="0.0000000000000000e+00" cType="1" res="5.4058324545621872e-02" rms="3.4834191203117371e-01" purity="1.0000000000000000e+00" nType="-99"/>
            </Node>
          </Node>
          <Node pos="r" depth="2" NCoef="0" IVar="2" Cut="3.8095238804817200e-01" cType="1" res="0.0000000000000000e+00" rms="0.0000000000000000e+00" purity="1.0000000000000000e+00" nType="0">
            <Node pos="l" depth="3" NCoef="0" IVar="1" Cut="5.3666667938232422e+01" cType="1" res="0.0000000000000000e+00" rms="0.0000000000000000e+00" purity="1.0000000000000000e+00" nType="0">
              <Node pos="l" depth="4" NCoef="0" IVar="-1" Cut="0.0000000000000000e+00" cType="1" res="2.7656365185976028e-02" rms="4.7581741213798523e-01" purity="1.0000000000000000e+00" nType="-99"/>
              <Node pos="r" depth="4" NCoef="0" IVar="-1" Cut="0.0000000000000000e+00" cType="1" res="-2.2854842245578766e-02" rms="2.8331756591796875e-01" purity="1.0000000000000000e+00" nType="-99"/>
            </Node>
            <Node pos="r" depth="3" NCoef="0" IVar="4" Cut="4.8571430206298828e+01" cType="1" res="0.0000000000000000e+00" rms="0.0000000000000000e+00" purity="1.0000000000000000e+00" nType="0">
              <Node pos="l" depth="4" NCoef="0" IVar="-1" Cut="0.0000000000000000e+00" cType="1" res="-3.7690483033657074e-02" rms="1.2156070768833160e-01" purity="1.0000000000000000e+00" nType="-99"/>
              <Node pos="r" depth="4" NCoef="0" IVar="-1" Cut="0.0000000000000000e+00" cType="1" res="1.7795979976654053e-02" rms="4.0414616465568542e-01" purity="1.0000000000000000e+00" nType="-99"/>
            </Node>
          </Node>
        </Node>
        <Node pos="r" depth="1" NCoef="0" IVar="2" Cut="3.8095238804817200e-01" cType="1" res="0.0000000000000000e+00" rms="0.0000000000000000e+00" purity="1.0000000000000000e+00" nType="0">
          <Node pos="l" depth="2" NCoef="0" IVar="3" Cut="2.1428570747375488e+00" cType="1" res="0.0000000000000000e+00" rms="0.0000000000000000e+00" purity="1.0000000000000000e+00" nType="0">
            <Node pos="l" depth="3" NCoef="0" IVar="1" Cut="9.8571424484252930e+00" cType="1" res="0.0000000000000000e+00" rms="0.0000000000000000e+00" purity="1.0000000000000000e+00" nType="0">
              <Node pos="l" depth="4" NCoef="0" IVar="-1" Cut="0.0000000000000000e+00" cType="1" res="5.9835650026798248e-02" rms="6.7695468664169312e-02" purity="1.0000000000000000e+00" nType="-99"/>
              <Node pos="r" depth="4" NCoef="0" IVar="-1" Cut="0.0000000000000000e+00" cType="1" res="1.9214184954762459e-02" rms="3.5160499811172485e-01" purity="1.0000000000000000e+00" nType="-99"/>
            </Node>
            <Node pos="r" depth="3" NCoef="0" IVar="-1" Cut="0.0000000000000000e+00" cType="1" res="-1.2932091951370239e-01" rms="0.0000000000000000e+00" purity="1.0000000000000000e+00" nType="-99"/>
          </Node>
          <Node pos="r" depth="2" NCoef="0" IVar="1" Cut="3.9285713195800781e+01" cType="1" res="0.0000000000000000e+00" rms="0.0000000000000000e+00" purity="1.0000000000000000e+00" nType="0">
            <Node pos="l" depth="3" NCoef="0" IVar="1" Cut="2.6250000000000000e+01" cType="1" res="0.0000000000000000e+00" rms="0.0000000000000000e+00" purity="1.0000000000000000e+00" nType="0">
              <Node pos="l" depth="4" NCoef="0" IVar="-1" Cut="0.0000000000000000e+00" cType="1" res="-1.0016469284892082e-02" rms="3.5734522342681885e-01" purity="1.0000000000000000e+00" nType="-99"/>
              <Node pos="r" depth="4" NCoef="0" IVar="-1" Cut="0.0000000000000000e+00" cType="1" res="3.0515620484948158e-02" rms="2.0578218996524811e-01" purity="1.0000000000000000e+00" nType="-99"/>
            </Node>
            <Node pos="r" depth="3" NCoef="0" IVar="4" Cut="1.6874605178833008e+01" cType="1" res="0.0000000000000000e+00" rms="0.0000000000000000e+00" purity="1.0000000000000000e+00" nType="0">
              <Node pos="l" depth="4" NCoef="0" IVar="-1" Cut="0.0000000000000000e+00" cType="1" res="-1.5504685044288635e-01" rms="0.0000000000000000e+00" purity="1.0000000000000000e+00" nType="-99"/>
              <Node pos="r" depth="4" NCoef="0" IVar="-1" Cut="0.0000000000000000e+00" cType="1" res="1.1950950138270855e-02" rms="3.0525499582290649e-01" purity="1.0000000000000000e+00" nType="-99"/>
            </Node>
          </Node>
        </Node>
      </Node>
    </BinaryTree>
    <BinaryTree type="DecisionTree" boostWeight="1.0000000000000000e+00" itree="7">
      <Node pos="s" depth="0" NCoef="0" IVar="0" Cut="4.7619048506021500e-02" cType="1" res="1.1903467100893295e-09" rms="3.2897615432739258e-01" purity="1.0000000000000000e+00" nType="0">
        <Node pos="l" depth="1" NCoef="0" IVar="4" Cut="2.6836291503906250e+02" cType="1" res="0.0000000000000000e+00" rms="0.0000000000000000e+00" purity="1.0000000000000000e+00" nType="0">
          <Node pos="l" depth="2" NCoef="0" IVar="4" Cut="1.1271428680419922e+02" cType="1" res="0.0000000000000000e+00" rms="0.0000000000000000e+00" purity="1.0000000000000000e+00" nType="0">
            <Node pos="l" depth="3" NCoef="0" IVar="4" Cut="8.4482513427734375e+01" cType="1" res="0.0000000000000000e+00" rms="0.0000000000000000e+00" purity="1.0000000000000000e+00" nType="0">
              <Node pos="l" depth="4" NCoef="0" IVar="-1" Cut="0.0000000000000000e+00" cType="1" res="-5.5600670166313648e-03" rms="3.2778918743133545e-01" purity="1.0000000000000000e+00" nType="-99"/>
              <Node pos="r" depth="4" NCoef="0" IVar="-1" Cut="0.0000000000000000e+00" cType="1" res="7.7045254409313202e-02" rms="4.6745380759239197e-01" purity="1.0000000000000000e+00" nType="-99"/>
            </Node>
            <Node pos="r" depth="3" NCoef="0" IVar="1" Cut="1.9509481430053711e+01" cType="1" res="0.0000000000000000e+00" rms="0.0000000000000000e+00" purity="1.0000000000000000e+00" nType="0">
              <Node pos="l" depth="4" NCoef="0" IVar="-1" Cut="0.0000000000000000e+00" cType="1" res="-3.4137479960918427e-02" rms="0.0000000000000000e+00" purity="1.0000000000000000e+00" nType="-99"/>
              <Node pos="r" depth="4" NCoef="0" IVar="-1" Cut="0.0000000000000000e+00" cType="1" res="-8.9178591966629028e-02" rms="3.2876506447792053e-02" purity="1.0000000000000000e+00" nType="-99"/>
            </Node>
          </Node>
          <Node pos="r" depth="2" NCoef="0" IVar="-1" Cut="0.0000000000000000e+00" cType="1" res="9.0402968227863312e-02" rms="0.0000000000000000e+00" purity="1.0000000000000000e+00" nType="-99"/>
        </Node>
        <Node pos="r" depth="1" NCoef="0" IVar="1" Cut="4.8178569793701172e+01" cType="1" res="0.0000000000000000e+00" rms="0.0000000000000000e+00" purity="1.0000000000000000e+00" nType="0">
          <Node pos="l" depth="2" NCoef="0" IVar="4" Cut="1.8952381134033203e+01" cType="1" res="0.0000000000000000e+00" rms="0.0000000000000000e+00" purity="1.0000000000000000e+00" nType="0">
            <Node pos="l" depth="3" NCoef="0" IVar="4" Cut="1.6928571701049805e+01" cType="1" res="0.0000000000000000e+00" rms="0.0000000000000000e+00" purity="1.0000000000000000e+00" nType="0">
              <Node pos="l" depth="4" NCoef="0" IVar="-1" Cut="0.0000000000000000e+00" cType="1" res="2.7676362078636885e-03" rms="4.4697701930999756e-01" purity="1.0000000000000000e+00" nType="-99"/>
              <Node pos="r" depth="4" NCoef="0" IVar="-1" Cut="0.0000000000000000e+00" cType="1" res="-1.0352608561515808e-01" rms="4.6381831169128418e-02" purity="1.0000000000000000e+00" nType="-99"/>
            </Node>
            <Node pos="r" depth="3" NCoef="0" IVar="2" Cut="2.2857143878936768e+00" cType="1" res="0.0000000000000000e+00" rms="0.0000000000000000e+00" purity="1.0000000000000000e+00" nType="0">
              <Node pos="l" depth="4" NCoef="0" IVar="-1" Cut="0.0000000000000000e+00" cType="1" res="1.7272705212235451e-02" rms="2.2387316823005676e-01" purity="1.0000000000000000e+00" nType="-99"/>
              <Node pos="r" depth="4" NCoef="0" IVar="-1" Cut="0.0000000000000000e+00" cType="1" res="-1.5142713673412800e-02" rms="1.0873697698116302e-01" purity="1.0000000000000000e+00" nType="-99"/>
            </Node>
          </Node>
          <Node pos="r" depth="2" NCoef="0" IVar="4" Cut="1.6108133316040039e+01" cType="1" res="0.0000000000000000e+00" rms="0.0000000000000000e+00" purity="1.0000000000000000e+00" nType="0">
            <Node pos="l" depth="3" NCoef="0" IVar="1" Cut="5.5380950927734375e+01" cType="1" res="0.0000000000000000e+00" rms="0.0000000000000000e+00" purity="1.0000000000000000e+00" nType="0">
              <Node pos="l" depth="4" NCoef="0" IVar="-1" Cut="0.0000000000000000e+00" cType="1" res="5.4719753563404083e-02" rms="0.0000000000000000e+00" purity="1.0000000000000000e+00" nType="-99"/>
              <Node pos="r" depth="4" NCoef="0" IVar="-1" Cut="0.0000000000000000e+00" cType="1" res="7.7485583722591400e-02" rms="0.0000000000000000e+00" purity="1.0000000000000000e+00" nType="-99"/>
            </Node>
            <Node pos="r" depth="3" NCoef="0" IVar="3" Cut="1.1428571939468384e+00" cType="1" res="0.0000000000000000e+00" rms="0.0000000000000000e+00" purity="1.0000000000000000e+00" nType="0">
              <Node pos="l" depth="4" NCoef="0" IVar="-1" Cut="0.0000000000000000e+00" cType="1" res="2.7646951377391815e-02" rms="7.7527379617094994e-03" purity="1.0000000000000000e+00" nType="-99"/>
              <Node pos="r" depth="4" NCoef="0" IVar="-1" Cut="0.0000000000000000e+00" cType="1" res="5.5913370102643967e-02" rms="0.0000000000000000e+00" purity="1.0000000000000000e+00" nType="-99"/>
            </Node>
          </Node>
        </Node>
      </Node>
    </BinaryTree>
    <BinaryTree type="DecisionTree" boostWeight="1.0000000000000000e+00" itree="8">
      <Node pos="s" depth="0" NCoef="0" IVar="1" Cut="8.2252378463745117e+00" cType="1" res="1.2510068536641938e-09" rms="3.2647243142127991e-01" purity="1.0000000000000000e+00" nType="0">
        <Node pos="l" depth="1" NCoef="0" IVar="4" Cut="4.5445240020751953e+01" cType="1" res="6.5558470785617828e-02" rms="1.8081958591938019e-01" purity="1.0000000000000000e+00" nType="0">
          <Node pos="l" depth="2" NCoef="0" IVar="2" Cut="2.0952382087707520e+00" cType="1" res="9.0636290609836578e-02" rms="1.1953985691070557e-01" purity="1.0000000000000000e+00" nType="0">
            <Node pos="l" depth="3" NCoef="0" IVar="4" Cut="3.7394672393798828e+01" cType="1" res="1.4914645254611969e-01" rms="7.5826644897460938e-02" purity="1.0000000000000000e+00" nType="0">
              <Node pos="l" depth="4" NCoef="0" IVar="-1" Cut="0.0000000000000000e+00" cType="1" res="4.1822955012321472e-02" rms="6.3610807061195374e-02" purity="1.0000000000000000e+00" nType="-99"/>
              <Node pos="r" depth="4" NCoef="0" IVar="-1" Cut="0.0000000000000000e+00" cType="1" res="1.0316354036331177e-01" rms="0.0000000000000000e+00" purity="1.0000000000000000e+00" nType="-99"/>
            </Node>
            <Node pos="r" depth="3" NCoef="0" IVar="4" Cut="2.1961309432983398e+01" cType="1" res="-4.5887410640716553e-02" rms="8.7120197713375092e-02" purity="1.0000000000000000e+00" nType="0">
              <Node pos="l" depth="4" NCoef="0" IVar="-1" Cut="0.0000000000000000e+00" cType="1" res="-6.2572717666625977e-02" rms="1.9041970372200012e-03" purity="1.0000000000000000e+00" nType="-99"/>
              <Node pos="r" depth="4" NCoef="0" IVar="-1" Cut="0.0000000000000000e+00" cType="1" res="1.7848951392807066e-04" rms="5.8902008458971977e-03" purity="1.0000000000000000e+00" nType="-99"/>
            </Node>
          </Node>
          <Node pos="r" depth="2" NCoef="0" IVar="-1" Cut="0.0000000000000000e+00" cType="1" res="-2.0603279769420624e-01" rms="0.0000000000000000e+00" purity="1.0000000000000000e+00" nType="-99"/>
        </Node>
        <Node pos="r" depth="1" NCoef="0" IVar="4" Cut="4.8793258666992188e+01" cType="1" res="-4.9089663662016392e-03" rms="3.3432176709175110e-01" purity="1.0000000000000000e+00" nType="0">
          <Node pos="l" depth="2" NCoef="0" IVar="2" Cut="2.3809523880481720e-01" cType="1" res="-1.4255317859351635e-02" rms="3.4946516156196594e-01" purity="1.0000000000000000e+00" nType="0">
            <Node pos="l" depth="3" NCoef="0" IVar="4" Cut="3.6303569793701172e+01" cType="1" res="-2.9819265473634005e-03" rms="3.5757499933242798e-01" purity="1.0000000000000000e+00" nType="0">
              <Node pos="l" depth="4" NCoef="0" IVar="-1" Cut="0.0000000000000000e+00" cType="1" res="5.5766891455277801e-04" rms="3.5810655355453491e-01" purity="1.0000000000000000e+00" nType="-99"/>
              <Node pos="r" depth="4" NCoef="0" IVar="-1" Cut="0.0000000000000000e+00" cType="1" res="-9.6379831433296204e-02" rms="1.2958984589204192e-03" purity="1.0000000000000000e+00" nType="-99"/>
            </Node>
            <Node pos="r" depth="3" NCoef="0" IVar="4" Cut="1.0841438293457031e+01" cType="1" res="-5.5488131940364838e-02" rms="3.1462475657463074e-01" purity="1.0000000000000000e+00" nType="0">
              <Node pos="l" depth="4" NCoef="0" IVar="-1" Cut="0.0000000000000000e+00" cType="1" res="-5.0739191472530365e-02" rms="2.7326467633247375e-01" purity="1.0000000000000000e+00" nType="-99"/>
              <Node pos="r" depth="4" NCoef="0" IVar="-1" Cut="0.0000000000000000e+00" cType="1" res="-1.1234891600906849e-02" rms="3.1697469949722290e-01" purity="1.0000000000000000e+00" nType="-99"/>
            </Node>
          </Node>
          <Node pos="r" depth="2" NCoef="0" IVar="1" Cut="1.7666666030883789e+01" cType="1" res="3.8033727556467056e-02" rms="2.4889604747295380e-01" purity="1.0000000000000000e+00" nType="0">
            <Node pos="l" depth="3" NCoef="0" IVar="0" Cut="4.7619048506021500e-02" cType="1" res="2.7098584175109863e-01" rms="2.9368385672569275e-01" purity="1.0000000000000000e+00" nType="0">
              <Node pos="l" depth="4" NCoef="0" IVar="-1" Cut="0.0000000000000000e+00" cType="1" res="2.0589527487754822e-01" rms="0.0000000000000000e+00" purity="1.0000000000000000e+00" nType="-99"/>
              <Node pos="r" depth="4" NCoef="0" IVar="-1" Cut="0.0000000000000000e+00" cType="1" res="1.8996000289916992e-02" rms="0.0000000000000000e+00" purity="1.0000000000000000e+00" nType="-99"/>
            </Node>
            <Node pos="r" depth="3" NCoef="0" IVar="1" Cut="4.8285713195800781e+01" cType="1" res="2.8190681710839272e-02" rms="2.4193511903285980e-01" purity="1.0000000000000000e+00" nType="0">
              <Node pos="l" depth="4" NCoef="0" IVar="-1" Cut="0.0000000000000000e+00" cType="1" res="1.4154560863971710e-02" rms="2.4790181219577789e-01" purity="1.0000000000000000e+00" nType="-99"/>
              <Node pos="r" depth="4" NCoef="0" IVar="-1" Cut="0.0000000000000000e+00" cType="1" res="-3.0791252851486206e-02" rms="1.3710504770278931e-01" purity="1.0000000000000000e+00" nType="-99"/>
            </Node>
          </Node>
        </Node>
      </Node>
    </BinaryTree>
    <BinaryTree type="DecisionTree" boostWeight="1.0000000000000000e+00" itree="9">
      <Node pos="s" depth="0" NCoef="0" IVar="1" Cut="3.0890953063964844e+01" cType="1" res="9.3864760408735037e-10" rms="3.2193762063980103e-01" purity="1.0000000000000000e+00" nType="0">
        <Node pos="l" depth="1" NCoef="0" IVar="4" Cut="1.2523809432983398e+01" cType="1" res="-1.0370025411248207e-02" rms="3.2682716846466064e-01" purity="1.0000000000000000e+00" nType="0">
          <Node pos="l" depth="2" NCoef="0" IVar="4" Cut="7.1285715103149414e+00" cType="1" res="-2.8655814006924629e-02" rms="3.4180682897567749e-01" purity="1.0000000000000000e+00" nType="0">
            <Node pos="l" depth="3" NCoef="0" IVar="0" Cut="4.7619048506021500e-02" cType="1" res="-1.6663995385169983e-01" rms="1.3024590909481049e-01" purity="1.0000000000000000e+00" nType="0">
              <Node pos="l" depth="4" NCoef="0" IVar="-1" Cut="0.0000000000000000e+00" cType="1" res="-3.9208035916090012e-02" rms="1.3372275047004223e-02" purity="1.0000000000000000e+00" nType="-99"/>
              <Node pos="r" depth="4" NCoef="0" IVar="-1" Cut="0.0000000000000000e+00" cType="1" res="-1.9018329679965973e-01" rms="0.0000000000000000e+00" purity="1.0000000000000000e+00" nType="-99"/>
            </Node>
            <Node pos="r" depth="3" NCoef="0" IVar="1" Cut="1.9642856597900391e+01" cType="1" res="-1.4955260790884495e-02" rms="3.5308596491813660e-01" purity="1.0000000000000000e+00" nType="0">
              <Node pos="l" depth="4" NCoef="0" IVar="-1" Cut="0.0000000000000000e+00" cType="1" res="2.3405963554978371e-02" rms="3.7158519029617310e-01" purity="1.0000000000000000e+00" nType="-99"/>
              <Node pos="r" depth="4" NCoef="0" IVar="-1" Cut="0.0000000000000000e+00" cType="1" res="-1.3009299524128437e-02" rms="3.4223538637161255e-01" purity="1.0000000000000000e+00" nType="-99"/>
            </Node>
          </Node>
          <Node pos="r" depth="2" NCoef="0" IVar="2" Cut="1.1428571939468384e+00" cType="1" res="8.4001543000340462e-03" rms="3.0957913398742676e-01" purity="1.0000000000000000e+00" nType="0">
            <Node pos="l" depth="3" NCoef="0" IVar="4" Cut="1.2236053466796875e+02" cType="1" res="2.4362057447433472e-02" rms="3.4462454915046692e-01" purity="1.0000000000000000e+00" nType="0">
              <Node pos="l" depth="4" NCoef="0" IVar="-1" Cut="0.0000000000000000e+00" cType="1" res="1.0802420787513256e-02" rms="3.5132789611816406e-01" purity="1.0000000000000000e+00" nType="-99"/>
              <Node pos="r" depth="4" NCoef="0" IVar="-1" Cut="0.0000000000000000e+00" cType="1" res="-3.8984276354312897e-02" rms="1.7704090476036072e-01" purity="1.0000000000000000e+00" nType="-99"/>
            </Node>
            <Node pos="r" depth="3" NCoef="0" IVar="4" Cut="2.9666666030883789e+01" cType="1" res="-4.0779761970043182e-02" rms="1.4831088483333588e-01" purity="1.0000000000000000e+00" nType="0">
              <Node pos="l" depth="4" NCoef="0" IVar="-1" Cut="0.0000000000000000e+00" cType="1" res="3.6300146020948887e-03" rms="1.3413773477077484e-01" purity="1.0000000000000000e+00" nType="-99"/>
              <Node pos="r" depth="4" NCoef="0" IVar="-1" Cut="0.0000000000000000e+00" cType="1" res="-2.4320743978023529e-02" rms="1.4591926336288452e-01" purity="1.0000000000000000e+00" nType="-99"/>
            </Node>
          </Node>
        </Node>
        <Node pos="r" depth="1" NCoef="0" IVar="1" Cut="4.0333332061767578e+01" cType="1" res="2.2828979417681694e-02" rms="3.0968138575553894e-01" purity="1.0000000000000000e+00" nType="0">
          <Node pos="l" depth="2" NCoef="0" IVar="1" Cut="3.2285713195800781e+01" cType="1" res="6.7703813314437866e-02" rms="3.1727072596549988e-01" purity="1.0000000000000000e+00" nType="0">
            <Node pos="l" depth="3" NCoef="0" IVar="4" Cut="1.5231747627258301e+01" cType="1" res="1.3933347165584564e-01" rms="3.8829395174980164e-01" purity="1.0000000000000000e+00" nType="0">
              <Node pos="l" depth="4" NCoef="0" IVar="-1" Cut="0.0000000000000000e+00" cType="1" res="8.8104315102100372e-02" rms="4.3251076340675354e-01" purity="1.0000000000000000e+00" nType="-99"/>
              <Node pos="r" depth="4" NCoef="0" IVar="-1" Cut="0.0000000000000000e+00" cType="1" res="-1.7734019085764885e-02" rms="1.8465735018253326e-01" purity="1.0000000000000000e+00" nType="-99"/>
            </Node>
            <Node pos="r" depth="3" NCoef="0" IVar="4" Cut="2.4396629333496094e+01" cType="1" res="4.7238197177648544e-02" rms="2.9061719775199890e-01" purity="1.0000000000000000e+00" nType="0">
              <Node pos="l" depth="4" NCoef="0" IVar="-1" Cut="0.0000000000000000e+00" cType="1" res="-6.6594681702554226e-03" rms="2.6701650023460388e-01" purity="1.0000000000000000e+00" nType="-99"/>
              <Node pos="r" depth="4" NCoef="0" IVar="-1" Cut="0.0000000000000000e+00" cType="1" res="3.2224930822849274e-02" rms="2.9675608873367310e-01" purity="1.0000000000000000e+00" nType="-99"/>
            </Node>
          </Node>
          <Node pos="r" depth="2" NCoef="0" IVar="1" Cut="4.6571430206298828e+01" cType="1" res="-2.5394722819328308e-02" rms="2.9376819729804993e-01" purity="1.0000000000000000e+00" nType="0">
            <Node pos="l" depth="3" NCoef="0" IVar="3" Cut="1.1904761791229248e+00" cType="1" res="-1.1672911047935486e-01" rms="3.0174472928047180e-01" purity="1.0000000000000000e+00" nType="0">
              <Node pos="l" depth="4" NCoef="0" IVar="-1" Cut="0.0000000000000000e+00" cType="1" res="-2.5831801816821098e-02" rms="2.8630751371383667e-01" purity="1.0000000000000000e+00" nType="-99"/>
              <Node pos="r" depth="4" NCoef="0" IVar="-1" Cut="0.0000000000000000e+00" cType="1" res="-1.4066845178604126e-01" rms="2.4625310301780701e-01" purity="1.0000000000000000e+00" nType="-99"/>
            </Node>
            <Node pos="r" depth="3" NCoef="0" IVar="4" Cut="2.0931543350219727e+01" cType="1" res="2.8970982879400253e-02" rms="2.7486580610275269e-01" purity="1.0000000000000000e+00" nType="0">
              <Node pos="l" depth="4" NCoef="0" IVar="-1" Cut="0.0000000000000000e+00" cType="1" res="-2.3369112983345985e-02" rms="1.1000886559486389e-01" purity="1.0000000000000000e+00" nType="-99"/>
              <Node pos="r" depth="4" NCoef="0" IVar="-1" Cut="0.0000000000000000e+00" cType="1" res="2.8420776128768921e-02" rms="3.2131561636924744e-01" purity="1.0000000000000000e+00" nType="-99"/>
            </Node>
          </Node>
        </Node>
      </Node>
    </BinaryTree>
    <BinaryTree type="DecisionTree" boostWeight="1.0000000000000000e+00" itree="10">
      <Node pos="s" depth="0" NCoef="0" IVar="0" Cut="4.7619048506021500e-02" cType="1" res="-1.8822657321670988e-10" rms="3.1557160615921021e-01" purity="1.0000000000000000e+00" nType="0">
        <Node pos="l" depth="1" NCoef="0" IVar="3" Cut="2.1428570747375488e+00" cType="1" res="0.0000000000000000e+00" rms="0.0000000000000000e+00" purity="1.0000000000000000e+00" nType="0">
          <Node pos="l" depth="2" NCoef="0" IVar="1" Cut="7.6222381591796875e+01" cType="1" res="0.0000000000000000e+00" rms="0.0000000000000000e+00" purity="1.0000000000000000e+00" nType="0">
            <Node pos="l" depth="3" NCoef="0" IVar="1" Cut="6.0032379150390625e+01" cType="1" res="0.0000000000000000e+00" rms="0.0000000000000000e+00" purity="1.0000000000000000e+00" nType="0">
              <Node pos="l" depth="4" NCoef="0" IVar="-1" Cut="0.0000000000000000e+00" cType="1" res="-1.6969462158158422e-03" rms="3.2608467340469360e-01" purity="1.0000000000000000e+00" nType="-99"/>
              <Node pos="r" depth="4" NCoef="0" IVar="-1" Cut="0.0000000000000000e+00" cType="1" res="-3.6346327513456345e-02" rms="5.7325076311826706e-02" purity="1.0000000000000000e+00" nType="-99"/>
            </Node>
            <Node pos="r" depth="3" NCoef="0" IVar="-1" Cut="0.0000000000000000e+00" cType="1" res="7.6403774321079254e-02" rms="0.0000000000000000e+00" purity="1.0000000000000000e+00" nType="-99"/>
          </Node>
          <Node pos="r" depth="2" NCoef="0" IVar="1" Cut="1.7142856597900391e+01" cType="1" res="0.0000000000000000e+00" rms="0.0000000000000000e+00" purity="1.0000000000000000e+00" nType="0">
            <Node pos="l" depth="3" NCoef="0" IVar="-1" Cut="0.0000000000000000e+00" cType="1" res="-4.9589339643716812e-02" rms="0.0000000000000000e+00" purity="1.0000000000000000e+00" nType="-99"/>
            <Node pos="r" depth="3" NCoef="0" IVar="-1" Cut="0.0000000000000000e+00" cType="1" res="-6.0497242957353592e-02" rms="0.0000000000000000e+00" purity="1.0000000000000000e+00" nType="-99"/>
          </Node>
        </Node>
        <Node pos="r" depth="1" NCoef="0" IVar="1" Cut="1.8535715103149414e+01" cType="1" res="0.0000000000000000e+00" rms="0.0000000000000000e+00" purity="1.0000000000000000e+00" nType="0">
          <Node pos="l" depth="2" NCoef="0" IVar="1" Cut="1.6357143402099609e+01" cType="1" res="0.0000000000000000e+00" rms="0.0000000000000000e+00" purity="1.0000000000000000e+00" nType="0">
            <Node pos="l" depth="3" NCoef="0" IVar="1" Cut="1.4547618865966797e+01" cType="1" res="0.0000000000000000e+00" rms="0.0000000000000000e+00" purity="1.0000000000000000e+00" nType="0">
              <Node pos="l" depth="4" NCoef="0" IVar="-1" Cut="0.0000000000000000e+00" cType="1" res="-1.5914017567411065e-03" rms="2.6380312442779541e-01" purity="1.0000000000000000e+00" nType="-99"/>
              <Node pos="r" depth="4" NCoef="0" IVar="-1" Cut="0.0000000000000000e+00" cType="1" res="7.1275353431701660e-02" rms="1.8750281631946564e-01" purity="1.0000000000000000e+00" nType="-99"/>
            </Node>
            <Node pos="r" depth="3" NCoef="0" IVar="3" Cut="1.0476191043853760e+00" cType="1" res="0.0000000000000000e+00" rms="0.0000000000000000e+00" purity="1.0000000000000000e+00" nType="0">
              <Node pos="l" depth="4" NCoef="0" IVar="-1" Cut="0.0000000000000000e+00" cType="1" res="-5.8133613318204880e-02" rms="4.3980661034584045e-01" purity="1.0000000000000000e+00" nType="-99"/>
              <Node pos="r" depth="4" NCoef="0" IVar="-1" Cut="0.0000000000000000e+00" cType="1" res="5.5007524788379669e-02" rms="0.0000000000000000e+00" purity="1.0000000000000000e+00" nType="-99"/>
            </Node>
          </Node>
          <Node pos="r" depth="2" NCoef="0" IVar="2" Cut="3.8095238804817200e-01" cType="1" res="0.0000000000000000e+00" rms="0.0000000000000000e+00" purity="1.0000000000000000e+00" nType="0">
            <Node pos="l" depth="3" NCoef="0" IVar="1" Cut="4.2047618865966797e+01" cType="1" res="0.0000000000000000e+00" rms="0.0000000000000000e+00" purity="1.0000000000000000e+00" nType="0">
              <Node pos="l" depth="4" NCoef="0" IVar="-1" Cut="0.0000000000000000e+00" cType="1" res="1.1770433746278286e-02" rms="3.2926020026206970e-01" purity="1.0000000000000000e+00" nType="-99"/>
              <Node pos="r" depth="4" NCoef="0" IVar="-1" Cut="0.0000000000000000e+00" cType="1" res="3.9083313196897507e-02" rms="1.0155360400676727e-01" purity="1.0000000000000000e+00" nType="-99"/>
            </Node>
            <Node pos="r" depth="3" NCoef="0" IVar="1" Cut="4.2047618865966797e+01" cType="1" res="0.0000000000000000e+00" rms="0.0000000000000000e+00" purity="1.0000000000000000e+00" nType="0">
              <Node pos="l" depth="4" NCoef="0" IVar="-1" Cut="0.0000000000000000e+00" cType="1" res="5.3156027570366859e-03" rms="2.7915880084037781e-01" purity="1.0000000000000000e+00" nType="-99"/>
              <Node pos="r" depth="4" NCoef="0" IVar="-1" Cut="0.0000000000000000e+00" cType="1" res="-2.7759542688727379e-02" rms="3.0608230829238892e-01" purity="1.0000000000000000e+00" nType="-99"/>
            </Node>
          </Node>
        </Node>
      </Node>
    </BinaryTree>
    <BinaryTree type="DecisionTree" boostWeight="1.0000000000000000e+00" itree="11">
      <Node pos="s" depth="0" NCoef="0" IVar="1" Cut="8.2252378463745117e+00" cType="1" res="-1.0024797658658713e-09" rms="3.1340694427490234e-01" purity="1.0000000000000000e+00" nType="0">
        <Node pos="l" depth="1" NCoef="0" IVar="4" Cut="4.5445240020751953e+01" cType="1" res="4.2591825127601624e-02" rms="1.2379215657711029e-01" purity="1.0000000000000000e+00" nType="0">
          <Node pos="l" depth="2" NCoef="0" IVar="2" Cut="2.0952382087707520e+00" cType="1" res="5.8683801442384720e-02" rms="8.8361814618110657e-02" purity="1.0000000000000000e+00" nType="0">
            <Node pos="l" depth="3" NCoef="0" IVar="4" Cut="1.6472028732299805e+01" cType="1" res="9.4450794160366058e-02" rms="7.0278219878673553e-02" purity="1.0000000000000000e+00" nType="0">
              <Node pos="l" depth="4" NCoef="0" IVar="-1" Cut="0.0000000000000000e+00" cType="1" res="1.3554132543504238e-02" rms="3.8947854191064835e-02" purity="1.0000000000000000e+00" nType="-99"/>
              <Node pos="r" depth="4" NCoef="0" IVar="-1" Cut="0.0000000000000000e+00" cType="1" res="3.5725791007280350e-02" rms="6.9493882358074188e-02" purity="1.0000000000000000e+00" nType="-99"/>
            </Node>
            <Node pos="r" depth="3" NCoef="0" IVar="4" Cut="2.1961309432983398e+01" cType="1" res="-2.4772515520453453e-02" rms="6.7466266453266144e-02" purity="1.0000000000000000e+00" nType="0">
              <Node pos="l" depth="4" NCoef="0" IVar="-1" Cut="0.0000000000000000e+00" cType="1" res="-4.4396653771400452e-02" rms="1.9569694995880127e-03" purity="1.0000000000000000e+00" nType="-99"/>
              <Node pos="r" depth="4" NCoef="0" IVar="-1" Cut="0.0000000000000000e+00" cType="1" res="3.1296443194150925e-03" rms="1.6550827771425247e-02" purity="1.0000000000000000e+00" nType="-99"/>
            </Node>
          </Node>
          <Node pos="r" depth="2" NCoef="0" IVar="-1" Cut="0.0000000000000000e+00" cType="1" res="-1.3205026090145111e-01" rms="0.0000000000000000e+00" purity="1.0000000000000000e+00" nType="-99"/>
        </Node>
        <Node pos="r" depth="1" NCoef="0" IVar="1" Cut="2.5904762268066406e+01" cType="1" res="-3.1892440747469664e-03" rms="3.2293242216110229e-01" purity="1.0000000000000000e+00" nType="0">
          <Node pos="l" depth="2" NCoef="0" IVar="1" Cut="2.4238094329833984e+01" cType="1" res="-2.8895989060401917e-02" rms="3.0189517140388489e-01" purity="1.0000000000000000e+00" nType="0">
            <Node pos="l" depth="3" NCoef="0" IVar="1" Cut="2.2571428298950195e+01" cType="1" res="-1.7983168363571167e-02" rms="3.0867409706115723e-01" purity="1.0000000000000000e+00" nType="0">
              <Node pos="l" depth="4" NCoef="0" IVar="-1" Cut="0.0000000000000000e+00" cType="1" res="-9.2250481247901917e-03" rms="3.2061183452606201e-01" purity="1.0000000000000000e+00" nType="-99"/>
              <Node pos="r" depth="4" NCoef="0" IVar="-1" Cut="0.0000000000000000e+00" cType="1" res="1.0244614444673061e-02" rms="2.4742957949638367e-01" purity="1.0000000000000000e+00" nType="-99"/>
            </Node>
            <Node pos="r" depth="3" NCoef="0" IVar="0" Cut="4.7619048506021500e-02" cType="1" res="-1.7682532966136932e-01" rms="1.0740889608860016e-01" purity="1.0000000000000000e+00" nType="0">
              <Node pos="l" depth="4" NCoef="0" IVar="-1" Cut="0.0000000000000000e+00" cType="1" res="-4.2760759592056274e-02" rms="4.8957556486129761e-02" purity="1.0000000000000000e+00" nType="-99"/>
              <Node pos="r" depth="4" NCoef="0" IVar="-1" Cut="0.0000000000000000e+00" cType="1" res="-1.3534234464168549e-01" rms="0.0000000000000000e+00" purity="1.0000000000000000e+00" nType="-99"/>
            </Node>
          </Node>
          <Node pos="r" depth="2" NCoef="0" IVar="2" Cut="3.8095238804817200e-01" cType="1" res="8.7103443220257759e-03" rms="3.3154559135437012e-01" purity="1.0000000000000000e+00" nType="0">
            <Node pos="l" depth="3" NCoef="0" IVar="1" Cut="2.8571428298950195e+01" cType="1" res="1.6031160950660706e-02" rms="3.4176096320152283e-01" purity="1.0000000000000000e+00" nType="0">
              <Node pos="l" depth="4" NCoef="0" IVar="-1" Cut="0.0000000000000000e+00" cType="1" res="3.8330882787704468e-02" rms="4.3645370006561279e-01" purity="1.0000000000000000e+00" nType="-99"/>
              <Node pos="r" depth="4" NCoef="0" IVar="-1" Cut="0.0000000000000000e+00" cType="1" res="1.8869594205170870e-03" rms="3.3044338226318359e-01" purity="1.0000000000000000e+00" nType="-99"/>
            </Node>
            <Node pos="r" depth="3" NCoef="0" IVar="4" Cut="3.7106922149658203e+01" cType="1" res="-1.3148996978998184e-02" rms="2.9790475964546204e-01" purity="1.0000000000000000e+00" nType="0">
              <Node pos="l" depth="4" NCoef="0" IVar="-1" Cut="0.0000000000000000e+00" cType="1" res="-1.7694314941763878e-02" rms="3.1687662005424500e-01" purity="1.0000000000000000e+00" nType="-99"/>
              <Node pos="r" depth="4" NCoef="0" IVar="-1" Cut="0.0000000000000000e+00" cType="1" res="1.2812643311917782e-02" rms="2.6239693164825439e-01" purity="1.0000000000000000e+00" nType="-99"/>
            </Node>
          </Node>
        </Node>
      </Node>
    </BinaryTree>
    <BinaryTree type="DecisionTree" boostWeight="1.0000000000000000e+00" itree="12">
      <Node pos="s" depth="0" NCoef="0" IVar="1" Cut="3.0890953063964844e+01" cType="1" res="-8.5810519800944007e-10" rms="3.1080505251884460e-01" purity="1.0000000000000000e+00" nType="0">
        <Node pos="l" depth="1" NCoef="0" IVar="1" Cut="2.9079523086547852e+01" cType="1" res="-7.0218979381024837e-03" rms="3.1829500198364258e-01" purity="1.0000000000000000e+00" nType="0">
          <Node pos="l" depth="2" NCoef="0" IVar="1" Cut="2.6301904678344727e+01" cType="1" res="2.0808717235922813e-03" rms="3.0966991186141968e-01" purity="1.0000000000000000e+00" nType="0">
            <Node pos="l" depth="3" NCoef="0" IVar="1" Cut="1.9969047546386719e+01" cType="1" res="-1.2405024841427803e-02" rms="2.8557115793228149e-01" purity="1.0000000000000000e+00" nType="0">
              <Node pos="l" depth="4" NCoef="0" IVar="-1" Cut="0.0000000000000000e+00" cType="1" res="2.8357291594147682e-03" rms="2.8208559751510620e-01" purity="1.0000000000000000e+00" nType="-99"/>
              <Node pos="r" depth="4" NCoef="0" IVar="-1" Cut="0.0000000000000000e+00" cType="1" res="-1.1331139132380486e-02" rms="2.8748774528503418e-01" purity="1.0000000000000000e+00" nType="-99"/>
            </Node>
            <Node pos="r" depth="3" NCoef="0" IVar="1" Cut="2.7095237731933594e+01" cType="1" res="1.0348214209079742e-01" rms="4.2960023880004883e-01" purity="1.0000000000000000e+00" nType="0">
              <Node pos="l" depth="4" NCoef="0" IVar="-1" Cut="0.0000000000000000e+00" cType="1" res="8.6328059434890747e-02" rms="4.2047584056854248e-01" purity="1.0000000000000000e+00" nType="-99"/>
              <Node pos="r" depth="4" NCoef="0" IVar="-1" Cut="0.0000000000000000e+00" cType="1" res="9.5455385744571686e-03" rms="4.1137701272964478e-01" purity="1.0000000000000000e+00" nType="-99"/>
            </Node>
          </Node>
          <Node pos="r" depth="2" NCoef="0" IVar="1" Cut="3.0004205703735352e+01" cType="1" res="-2.4196935817599297e-02" rms="3.3328628540039062e-01" purity="1.0000000000000000e+00" nType="0">
            <Node pos="l" depth="3" NCoef="0" IVar="4" Cut="2.1121829986572266e+01" cType="1" res="-1.7030995339155197e-02" rms="3.3033883571624756e-01" purity="1.0000000000000000e+00" nType="0">
              <Node pos="l" depth="4" NCoef="0" IVar="-1" Cut="0.0000000000000000e+00" cType="1" res="2.2048312239348888e-03" rms="3.4882733225822449e-01" purity="1.0000000000000000e+00" nType="-99"/>
              <Node pos="r" depth="4" NCoef="0" IVar="-1" Cut="0.0000000000000000e+00" cType="1" res="-2.0167799666523933e-02" rms="2.8200757503509521e-01" purity="1.0000000000000000e+00" nType="-99"/>
            </Node>
            <Node pos="r" depth="3" NCoef="0" IVar="0" Cut="4.7619048506021500e-02" cType="1" res="-3.9682585000991821e-01" rms="2.6696264743804932e-01" purity="1.0000000000000000e+00" nType="0">
              <Node pos="l" depth="4" NCoef="0" IVar="-1" Cut="0.0000000000000000e+00" cType="1" res="-3.8958951830863953e-02" rms="0.0000000000000000e+00" purity="1.0000000000000000e+00" nType="-99"/>
              <Node pos="r" depth="4" NCoef="0" IVar="-1" Cut="0.0000000000000000e+00" cType="1" res="-1.9913655519485474e-01" rms="0.0000000000000000e+00" purity="1.0000000000000000e+00" nType="-99"/>
            </Node>
          </Node>
        </Node>
        <Node pos="r" depth="1" NCoef="0" IVar="1" Cut="4.0333332061767578e+01" cType="1" res="1.5458275564014912e-02" rms="2.9305163025856018e-01" purity="1.0000000000000000e+00" nType="0">
          <Node pos="l" depth="2" NCoef="0" IVar="1" Cut="3.5285713195800781e+01" cType="1" res="4.6730432659387589e-02" rms="3.0501669645309448e-01" purity="1.0000000000000000e+00" nType="0">
            <Node pos="l" depth="3" NCoef="0" IVar="1" Cut="3.2142856597900391e+01" cType="1" res="1.9530033692717552e-02" rms="2.7923822402954102e-01" purity="1.0000000000000000e+00" nType="0">
              <Node pos="l" depth="4" NCoef="0" IVar="-1" Cut="0.0000000000000000e+00" cType="1" res="2.8490250930190086e-02" rms="3.6660602688789368e-01" purity="1.0000000000000000e+00" nType="-99"/>
              <Node pos="r" depth="4" NCoef="0" IVar="-1" Cut="0.0000000000000000e+00" cType="1" res="-8.6249830201268196e-03" rms="1.8944199383258820e-01" purity="1.0000000000000000e+00" nType="-99"/>
            </Node>
            <Node pos="r" depth="3" NCoef="0" IVar="1" Cut="3.7142856597900391e+01" cType="1" res="8.2705155014991760e-02" rms="3.3268922567367554e-01" purity="1.0000000000000000e+00" nType="0">
              <Node pos="l" depth="4" NCoef="0" IVar="-1" Cut="0.0000000000000000e+00" cType="1" res="4.9249760806560516e-02" rms="3.0750101804733276e-01" purity="1.0000000000000000e+00" nType="-99"/>
              <Node pos="r" depth="4" NCoef="0" IVar="-1" Cut="0.0000000000000000e+00" cType="1" res="7.1617253124713898e-03" rms="3.3774885535240173e-01" purity="1.0000000000000000e+00" nType="-99"/>
            </Node>
          </Node>
          <Node pos="r" depth="2" NCoef="0" IVar="1" Cut="4.6571430206298828e+01" cType="1" res="-1.8147623166441917e-02" rms="2.7569732069969177e-01" purity="1.0000000000000000e+00" nType="0">
            <Node pos="l" depth="3" NCoef="0" IVar="3" Cut="1.1904761791229248e+00" cType="1" res="-8.6105629801750183e-02" rms="2.8539586067199707e-01" purity="1.0000000000000000e+00" nType="0">
              <Node pos="l" depth="4" NCoef="0" IVar="-1" Cut="0.0000000000000000e+00" cType="1" res="-1.9159214571118355e-02" rms="2.7762705087661743e-01" purity="1.0000000000000000e+00" nType="-99"/>
              <Node pos="r" depth="4" NCoef="0" IVar="-1" Cut="0.0000000000000000e+00" cType="1" res="-1.0256512463092804e-01" rms="2.4625310301780701e-01" purity="1.0000000000000000e+00" nType="-99"/>
            </Node>
            <Node pos="r" depth="3" NCoef="0" IVar="4" Cut="2.0931543350219727e+01" cType="1" res="2.2303570061922073e-02" rms="2.6150444149971008e-01" purity="1.0000000000000000e+00" nType="0">
              <Node pos="l" depth="4" NCoef="0" IVar="-1" Cut="0.0000000000000000e+00" cType="1" res="-1.5789467841386795e-02" rms="9.3882657587528229e-02" purity="1.0000000000000000e+00" nType="-99"/>
              <Node pos="r" depth="4" NCoef="0" IVar="-1" Cut="0.0000000000000000e+00" cType="1" res="2.0525248721241951e-02" rms="3.1537494063377380e-01" purity="1.0000000000000000e+00" nType="-99"/>
            </Node>
          </Node>
        </Node>
      </Node>
    </BinaryTree>
    <BinaryTree type="DecisionTree" boostWeight="1.0000000000000000e+00" itree="13">
      <Node pos="s" depth="0" NCoef="0" IVar="0" Cut="4.7619048506021500e-02" cType="1" res="-2.1307927644542701e-10" rms="3.0643063783645630e-01" purity="1.0000000000000000e+00" nType="0">
        <Node pos="l" depth="1" NCoef="0" IVar="1" Cut="5.7334285736083984e+01" cType="1" res="0.0000000000000000e+00" rms="0.0000000000000000e+00" purity="1.0000000000000000e+00" nType="0">
          <Node pos="l" depth="2" NCoef="0" IVar="1" Cut="4.6270477294921875e+01" cType="1" res="0.0000000000000000e+00" rms="0.0000000000000000e+00" purity="1.0000000000000000e+00" nType="0">
            <Node pos="l" depth="3" NCoef="0" IVar="1" Cut="4.3841426849365234e+01" cType="1" res="0.0000000000000000e+00" rms="0.0000000000000000e+00" purity="1.0000000000000000e+00" nType="0">
              <Node pos="l" depth="4" NCoef="0" IVar="-1" Cut="0.0000000000000000e+00" cType="1" res="-1.2256249319761992e-03" rms="3.1926956772804260e-01" purity="1.0000000000000000e+00" nType="-99"/>
              <Node pos="r" depth="4" NCoef="0" IVar="-1" Cut="0.0000000000000000e+00" cType="1" res="-5.7964861392974854e-02" rms="1.0363879054784775e-01" purity="1.0000000000000000e+00" nType="-99"/>
            </Node>
            <Node pos="r" depth="3" NCoef="0" IVar="4" Cut="1.5840471267700195e+01" cType="1" res="0.0000000000000000e+00" rms="0.0000000000000000e+00" purity="1.0000000000000000e+00" nType="0">
              <Node pos="l" depth="4" NCoef="0" IVar="-1" Cut="0.0000000000000000e+00" cType="1" res="-1.8024260178208351e-02" rms="1.9426098093390465e-02" purity="1.0000000000000000e+00" nType="-99"/>
              <Node pos="r" depth="4" NCoef="0" IVar="-1" Cut="0.0000000000000000e+00" cType="1" res="5.1888491958379745e-02" rms="4.6389052271842957e-01" purity="1.0000000000000000e+00" nType="-99"/>
            </Node>
          </Node>
          <Node pos="r" depth="2" NCoef="0" IVar="1" Cut="7.2000000000000000e+01" cType="1" res="0.0000000000000000e+00" rms="0.0000000000000000e+00" purity="1.0000000000000000e+00" nType="0">
            <Node pos="l" depth="3" NCoef="0" IVar="4" Cut="1.5489285469055176e+01" cType="1" res="0.0000000000000000e+00" rms="0.0000000000000000e+00" purity="1.0000000000000000e+00" nType="0">
              <Node pos="l" depth="4" NCoef="0" IVar="-1" Cut="0.0000000000000000e+00" cType="1" res="-5.6939856149256229e-03" rms="3.3230934292078018e-02" purity="1.0000000000000000e+00" nType="-99"/>
              <Node pos="r" depth="4" NCoef="0" IVar="-1" Cut="0.0000000000000000e+00" cType="1" res="-3.9933469146490097e-02" rms="3.8199551403522491e-02" purity="1.0000000000000000e+00" nType="-99"/>
            </Node>
            <Node pos="r" depth="3" NCoef="0" IVar="1" Cut="7.4285713195800781e+01" cType="1" res="0.0000000000000000e+00" rms="0.0000000000000000e+00" purity="1.0000000000000000e+00" nType="0">
              <Node pos="l" depth="4" NCoef="0" IVar="-1" Cut="0.0000000000000000e+00" cType="1" res="4.2752944864332676e-03" rms="0.0000000000000000e+00" purity="1.0000000000000000e+00" nType="-99"/>
              <Node pos="r" depth="4" NCoef="0" IVar="-1" Cut="0.0000000000000000e+00" cType="1" res="4.6758979558944702e-02" rms="0.0000000000000000e+00" purity="1.0000000000000000e+00" nType="-99"/>
            </Node>
          </Node>
        </Node>
        <Node pos="r" depth="1" NCoef="0" IVar="1" Cut="1.8535715103149414e+01" cType="1" res="0.0000000000000000e+00" rms="0.0000000000000000e+00" purity="1.0000000000000000e+00" nType="0">
          <Node pos="l" depth="2" NCoef="0" IVar="1" Cut="1.6357143402099609e+01" cType="1" res="0.0000000000000000e+00" rms="0.0000000000000000e+00" purity="1.0000000000000000e+00" nType="0">
            <Node pos="l" depth="3" NCoef="0" IVar="1" Cut="1.4547618865966797e+01" cType="1" res="0.0000000000000000e+00" rms="0.0000000000000000e+00" purity="1.0000000000000000e+00" nType="0">
              <Node pos="l" depth="4" NCoef="0" IVar="-1" Cut="0.0000000000000000e+00" cType="1" res="-3.5615179222077131e-03" rms="2.4861143529415131e-01" purity="1.0000000000000000e+00" nType="-99"/>
              <Node pos="r" depth="4" NCoef="0" IVar="-1" Cut="0.0000000000000000e+00" cType="1" res="5.1809541881084442e-02" rms="1.8750281631946564e-01" purity="1.0000000000000000e+00" nType="-99"/>
            </Node>
            <Node pos="r" depth="3" NCoef="0" IVar="3" Cut="1.0476191043853760e+00" cType="1" res="0.0000000000000000e+00" rms="0.0000000000000000e+00" purity="1.0000000000000000e+00" nType="0">
              <Node pos="l" depth="4" NCoef="0" IVar="-1" Cut="0.0000000000000000e+00" cType="1" res="-3.8776732981204987e-02" rms="4.3980661034584045e-01" purity="1.0000000000000000e+00" nType="-99"/>
              <Node pos="r" depth="4" NCoef="0" IVar="-1" Cut="0.0000000000000000e+00" cType="1" res="4.0422063320875168e-02" rms="0.0000000000000000e+00" purity="1.0000000000000000e+00" nType="-99"/>
            </Node>
          </Node>
          <Node pos="r" depth="2" NCoef="0" IVar="1" Cut="2.5285715103149414e+01" cType="1" res="0.0000000000000000e+00" rms="0.0000000000000000e+00" purity="1.0000000000000000e+00" nType="0">
            <Node pos="l" depth="3" NCoef="0" IVar="1" Cut="1.9285715103149414e+01" cType="1" res="0.0000000000000000e+00" rms="0.0000000000000000e+00" purity="1.0000000000000000e+00" nType="0">
              <Node pos="l" depth="4" NCoef="0" IVar="-1" Cut="0.0000000000000000e+00" cType="1" res="8.8040657341480255e-02" rms="1.4809562265872955e-01" purity="1.0000000000000000e+00" nType="-99"/>
              <Node pos="r" depth="4" NCoef="0" IVar="-1" Cut="0.0000000000000000e+00" cType="1" res="5.4257232695817947e-03" rms="3.1547147035598755e-01" purity="1.0000000000000000e+00" nType="-99"/>
            </Node>
            <Node pos="r" depth="3" NCoef="0" IVar="1" Cut="2.7761905670166016e+01" cType="1" res="0.0000000000000000e+00" rms="0.0000000000000000e+00" purity="1.0000000000000000e+00" nType="0">
              <Node pos="l" depth="4" NCoef="0" IVar="-1" Cut="0.0000000000000000e+00" cType="1" res="-4.0743313729763031e-02" rms="4.6124690771102905e-01" purity="1.0000000000000000e+00" nType="-99"/>
              <Node pos="r" depth="4" NCoef="0" IVar="-1" Cut="0.0000000000000000e+00" cType="1" res="7.1902144700288773e-03" rms="2.6456969976425171e-01" purity="1.0000000000000000e+00" nType="-99"/>
            </Node>
          </Node>
        </Node>
      </Node>
    </BinaryTree>
    <BinaryTree type="DecisionTree" boostWeight="1.0000000000000000e+00" itree="14">
      <Node pos="s" depth="0" NCoef="0" IVar="4" Cut="2.6836291503906250e+02" cType="1" res="-5.8730874330503724e-11" rms="3.0343660712242126e-01" purity="1.0000000000000000e+00" nType="0">
        <Node pos="l" depth="1" NCoef="0" IVar="4" Cut="1.2523809432983398e+01" cType="1" res="-3.9239053148776293e-04" rms="3.0366533994674683e-01" purity="1.0000000000000000e+00" nType="0">
          <Node pos="l" depth="2" NCoef="0" IVar="1" Cut="1.9142856597900391e+01" cType="1" res="-1.1031736619770527e-02" rms="3.1763821840286255e-01" purity="1.0000000000000000e+00" nType="0">
            <Node pos="l" depth="3" NCoef="0" IVar="4" Cut="1.0294048309326172e+01" cType="1" res="4.4566240161657333e-02" rms="3.5866743326187134e-01" purity="1.0000000000000000e+00" nType="0">
              <Node pos="l" depth="4" NCoef="0" IVar="-1" Cut="0.0000000000000000e+00" cType="1" res="-2.4104579351842403e-03" rms="3.4710490703582764e-01" purity="1.0000000000000000e+00" nType="-99"/>
              <Node pos="r" depth="4" NCoef="0" IVar="-1" Cut="0.0000000000000000e+00" cType="1" res="7.8745529055595398e-02" rms="3.2171216607093811e-01" purity="1.0000000000000000e+00" nType="-99"/>
            </Node>
            <Node pos="r" depth="3" NCoef="0" IVar="2" Cut="9.5238097012042999e-02" cType="1" res="-2.3780317977070808e-02" rms="3.0603930354118347e-01" purity="1.0000000000000000e+00" nType="0">
              <Node pos="l" depth="4" NCoef="0" IVar="-1" Cut="0.0000000000000000e+00" cType="1" res="-5.1771877333521843e-03" rms="3.1047204136848450e-01" purity="1.0000000000000000e+00" nType="-99"/>
              <Node pos="r" depth="4" NCoef="0" IVar="-1" Cut="0.0000000000000000e+00" cType="1" res="-4.3581493198871613e-02" rms="1.6495022177696228e-01" purity="1.0000000000000000e+00" nType="-99"/>
            </Node>
          </Node>
          <Node pos="r" depth="2" NCoef="0" IVar="1" Cut="1.9558095932006836e+01" cType="1" res="7.7884616330265999e-03" rms="2.9220426082611084e-01" purity="1.0000000000000000e+00" nType="0">
            <Node pos="l" depth="3" NCoef="0" IVar="3" Cut="1.4285714924335480e-01" cType="1" res="-1.9176648929715157e-02" rms="2.0527653396129608e-01" purity="1.0000000000000000e+00" nType="0">
              <Node pos="l" depth="4" NCoef="0" IVar="-1" Cut="0.0000000000000000e+00" cType="1" res="-4.1293848305940628e-02" rms="2.7476742863655090e-01" purity="1.0000000000000000e+00" nType="-99"/>
              <Node pos="r" depth="4" NCoef="0" IVar="-1" Cut="0.0000000000000000e+00" cType="1" res="7.7491655247285962e-04" rms="1.8154889345169067e-01" purity="1.0000000000000000e+00" nType="-99"/>
            </Node>
            <Node pos="r" depth="3" NCoef="0" IVar="4" Cut="3.6809524536132812e+01" cType="1" res="1.5891965478658676e-02" rms="3.1320124864578247e-01" purity="1.0000000000000000e+00" nType="0">
              <Node pos="l" depth="4" NCoef="0" IVar="-1" Cut="0.0000000000000000e+00" cType="1" res="1.0614998638629913e-02" rms="3.5888534784317017e-01" purity="1.0000000000000000e+00" nType="-99"/>
              <Node pos="r" depth="4" NCoef="0" IVar="-1" Cut="0.0000000000000000e+00" cType="1" res="-4.2343423701822758e-03" rms="2.2213120758533478e-01" purity="1.0000000000000000e+00" nType="-99"/>
            </Node>
          </Node>
        </Node>
        <Node pos="r" depth="1" NCoef="0" IVar="-1" Cut="0.0000000000000000e+00" cType="1" res="5.2266407757997513e-02" rms="0.0000000000000000e+00" purity="1.0000000000000000e+00" nType="-99"/>
      </Node>
    </BinaryTree>
    <BinaryTree type="DecisionTree" boostWeight="1.0000000000000000e+00" itree="15">
      <Node pos="s" depth="0" NCoef="0" IVar="2" Cut="5.3333334922790527e+00" cType="1" res="-2.5114316182239804e-10" rms="3.0142784118652344e-01" purity="1.0000000000000000e+00" nType="0">
        <Node pos="l" depth="1" NCoef="0" IVar="0" Cut="4.7619048506021500e-02" cType="1" res="7.3390873149037361e-04" rms="3.0268818140029907e-01" purity="1.0000000000000000e+00" nType="0">
          <Node pos="l" depth="2" NCoef="0" IVar="4" Cut="1.2198314666748047e+02" cType="1" res="0.0000000000000000e+00" rms="0.0000000000000000e+00" purity="1.0000000000000000e+00" nType="0">
            <Node pos="l" depth="3" NCoef="0" IVar="4" Cut="5.2801570892333984e+01" cType="1" res="0.0000000000000000e+00" rms="0.0000000000000000e+00" purity="1.0000000000000000e+00" nType="0">
              <Node pos="l" depth="4" NCoef="0" IVar="-1" Cut="0.0000000000000000e+00" cType="1" res="-2.0519010722637177e-03" rms="3.0843883752822876e-01" purity="1.0000000000000000e+00" nType="-99"/>
              <Node pos="r" depth="4" NCoef="0" IVar="-1" Cut="0.0000000000000000e+00" cType="1" res="2.0997902378439903e-02" rms="3.8265904784202576e-01" purity="1.0000000000000000e+00" nType="-99"/>
            </Node>
            <Node pos="r" depth="3" NCoef="0" IVar="1" Cut="3.0428571701049805e+01" cType="1" res="0.0000000000000000e+00" rms="0.0000000000000000e+00" purity="1.0000000000000000e+00" nType="0">
              <Node pos="l" depth="4" NCoef="0" IVar="-1" Cut="0.0000000000000000e+00" cType="1" res="-5.0629731267690659e-02" rms="6.9734580814838409e-02" purity="1.0000000000000000e+00" nType="-99"/>
              <Node pos="r" depth="4" NCoef="0" IVar="-1" Cut="0.0000000000000000e+00" cType="1" res="3.6586485803127289e-02" rms="0.0000000000000000e+00" purity="1.0000000000000000e+00" nType="-99"/>
            </Node>
          </Node>
          <Node pos="r" depth="2" NCoef="0" IVar="1" Cut="1.8535715103149414e+01" cType="1" res="0.0000000000000000e+00" rms="0.0000000000000000e+00" purity="1.0000000000000000e+00" nType="0">
            <Node pos="l" depth="3" NCoef="0" IVar="1" Cut="8.1428575515747070e+00" cType="1" res="0.0000000000000000e+00" rms="0.0000000000000000e+00" purity="1.0000000000000000e+00" nType="0">
              <Node pos="l" depth="4" NCoef="0" IVar="-1" Cut="0.0000000000000000e+00" cType="1" res="9.7912847995758057e-03" rms="1.1338793486356735e-01" purity="1.0000000000000000e+00" nType="-99"/>
              <Node pos="r" depth="4" NCoef="0" IVar="-1" Cut="0.0000000000000000e+00" cType="1" res="-1.4049573801457882e-02" rms="3.6520549654960632e-01" purity="1.0000000000000000e+00" nType="-99"/>
            </Node>
            <Node pos="r" depth="3" NCoef="0" IVar="3" Cut="1.1904761791229248e+00" cType="1" res="0.0000000000000000e+00" rms="0.0000000000000000e+00" purity="1.0000000000000000e+00" nType="0">
              <Node pos="l" depth="4" NCoef="0" IVar="-1" Cut="0.0000000000000000e+00" cType="1" res="3.9737112820148468e-03" rms="2.9226526618003845e-01" purity="1.0000000000000000e+00" nType="-99"/>
              <Node pos="r" depth="4" NCoef="0" IVar="-1" Cut="0.0000000000000000e+00" cType="1" res="1.8601134419441223e-02" rms="2.3178358376026154e-01" purity="1.0000000000000000e+00" nType="-99"/>
            </Node>
          </Node>
        </Node>
        <Node pos="r" depth="1" NCoef="0" IVar="0" Cut="4.7619048506021500e-02" cType="1" res="-8.0913469195365906e-02" rms="1.7576988786458969e-02" purity="1.0000000000000000e+00" nType="0">
          <Node pos="l" depth="2" NCoef="0" IVar="-1" Cut="0.0000000000000000e+00" cType="1" res="-2.9547136276960373e-02" rms="0.0000000000000000e+00" purity="1.0000000000000000e+00" nType="-99"/>
          <Node pos="r" depth="2" NCoef="0" IVar="-1" Cut="0.0000000000000000e+00" cType="1" res="-1.9000943750143051e-02" rms="0.0000000000000000e+00" purity="1.0000000000000000e+00" nType="-99"/>
        </Node>
      </Node>
    </BinaryTree>
    <BinaryTree type="DecisionTree" boostWeight="1.0000000000000000e+00" itree="16">
      <Node pos="s" depth="0" NCoef="0" IVar="1" Cut="4.2223808288574219e+01" cType="1" res="-5.9911381411481557e-10" rms="3.0070757865905762e-01" purity="1.0000000000000000e+00" nType="0">
        <Node pos="l" depth="1" NCoef="0" IVar="1" Cut="3.6095714569091797e+01" cType="1" res="2.9537172522395849e-03" rms="3.0769965052604675e-01" purity="1.0000000000000000e+00" nType="0">
          <Node pos="l" depth="2" NCoef="0" IVar="0" Cut="4.7619048506021500e-02" cType="1" res="1.0496668255655095e-04" rms="3.0488899350166321e-01" purity="1.0000000000000000e+00" nType="0">
            <Node pos="l" depth="3" NCoef="0" IVar="3" Cut="1.4285714924335480e-01" cType="1" res="0.0000000000000000e+00" rms="0.0000000000000000e+00" purity="1.0000000000000000e+00" nType="0">
              <Node pos="l" depth="4" NCoef="0" IVar="-1" Cut="0.0000000000000000e+00" cType="1" res="-3.8432222791016102e-03" rms="3.2242280244827271e-01" purity="1.0000000000000000e+00" nType="-99"/>
              <Node pos="r" depth="4" NCoef="0" IVar="-1" Cut="0.0000000000000000e+00" cType="1" res="9.7067365422844887e-03" rms="2.2861820459365845e-01" purity="1.0000000000000000e+00" nType="-99"/>
            </Node>
            <Node pos="r" depth="3" NCoef="0" IVar="1" Cut="2.2571428298950195e+01" cType="1" res="0.0000000000000000e+00" rms="0.0000000000000000e+00" purity="1.0000000000000000e+00" nType="0">
              <Node pos="l" depth="4" NCoef="0" IVar="-1" Cut="0.0000000000000000e+00" cType="1" res="-2.8908636886626482e-03" rms="3.0432447791099548e-01" purity="1.0000000000000000e+00" nType="-99"/>
              <Node pos="r" depth="4" NCoef="0" IVar="-1" Cut="0.0000000000000000e+00" cType="1" res="8.4676053375005722e-03" rms="2.8321066498756409e-01" purity="1.0000000000000000e+00" nType="-99"/>
            </Node>
          </Node>
          <Node pos="r" depth="2" NCoef="0" IVar="1" Cut="3.7238094329833984e+01" cType="1" res="3.6948807537555695e-02" rms="3.3759915828704834e-01" purity="1.0000000000000000e+00" nType="0">
            <Node pos="l" depth="3" NCoef="0" IVar="2" Cut="1.0476191043853760e+00" cType="1" res="0.0000000000000000e+00" rms="0.0000000000000000e+00" purity="1.0000000000000000e+00" nType="0">
              <Node pos="l" depth="4" NCoef="0" IVar="-1" Cut="0.0000000000000000e+00" cType="1" res="1.9938389956951141e-01" rms="0.0000000000000000e+00" purity="1.0000000000000000e+00" nType="-99"/>
              <Node pos="r" depth="4" NCoef="0" IVar="-1" Cut="0.0000000000000000e+00" cType="1" res="9.6950540319085121e-03" rms="0.0000000000000000e+00" purity="1.0000000000000000e+00" nType="-99"/>
            </Node>
            <Node pos="r" depth="3" NCoef="0" IVar="3" Cut="1.1904761791229248e+00" cType="1" res="1.4697656966745853e-02" rms="3.2794535160064697e-01" purity="1.0000000000000000e+00" nType="0">
              <Node pos="l" depth="4" NCoef="0" IVar="-1" Cut="0.0000000000000000e+00" cType="1" res="1.4182161539793015e-02" rms="3.3857423067092896e-01" purity="1.0000000000000000e+00" nType="-99"/>
              <Node pos="r" depth="4" NCoef="0" IVar="-1" Cut="0.0000000000000000e+00" cType="1" res="-4.0545880794525146e-02" rms="2.1822790801525116e-01" purity="1.0000000000000000e+00" nType="-99"/>
            </Node>
          </Node>
        </Node>
        <Node pos="r" depth="1" NCoef="0" IVar="1" Cut="4.4761905670166016e+01" cType="1" res="-2.0106010138988495e-02" rms="2.4699014425277710e-01" purity="1.0000000000000000e+00" nType="0">
          <Node pos="l" depth="2" NCoef="0" IVar="2" Cut="9.5238097012042999e-02" cType="1" res="-1.4394173026084900e-01" rms="2.5941881537437439e-01" purity="1.0000000000000000e+00" nType="0">
            <Node pos="l" depth="3" NCoef="0" IVar="0" Cut="4.7619048506021500e-02" cType="1" res="1.8015429377555847e-03" rms="1.2524588406085968e-01" purity="1.0000000000000000e+00" nType="0">
              <Node pos="l" depth="4" NCoef="0" IVar="-1" Cut="0.0000000000000000e+00" cType="1" res="-2.7475522831082344e-02" rms="1.0872559994459152e-01" purity="1.0000000000000000e+00" nType="-99"/>
              <Node pos="r" depth="4" NCoef="0" IVar="-1" Cut="0.0000000000000000e+00" cType="1" res="2.8556451201438904e-02" rms="4.5931346714496613e-02" purity="1.0000000000000000e+00" nType="-99"/>
            </Node>
            <Node pos="r" depth="3" NCoef="0" IVar="0" Cut="4.7619048506021500e-02" cType="1" res="-3.3826610445976257e-01" rms="2.6463210582733154e-01" purity="1.0000000000000000e+00" nType="0">
              <Node pos="l" depth="4" NCoef="0" IVar="-1" Cut="0.0000000000000000e+00" cType="1" res="-4.5776367187500000e-02" rms="4.0200155228376389e-02" purity="1.0000000000000000e+00" nType="-99"/>
              <Node pos="r" depth="4" NCoef="0" IVar="-1" Cut="0.0000000000000000e+00" cType="1" res="-2.1288675069808960e-01" rms="0.0000000000000000e+00" purity="1.0000000000000000e+00" nType="-99"/>
            </Node>
          </Node>
          <Node pos="r" depth="2" NCoef="0" IVar="4" Cut="6.2806362152099609e+01" cType="1" res="-2.7690094429999590e-03" rms="2.4015715718269348e-01" purity="1.0000000000000000e+00" nType="0">
            <Node pos="l" depth="3" NCoef="0" IVar="1" Cut="4.6666667938232422e+01" cType="1" res="1.0956814512610435e-02" rms="2.4582545459270477e-01" purity="1.0000000000000000e+00" nType="0">
              <Node pos="l" depth="4" NCoef="0" IVar="-1" Cut="0.0000000000000000e+00" cType="1" res="-2.4004042148590088e-02" rms="1.9501213729381561e-01" purity="1.0000000000000000e+00" nType="-99"/>
              <Node pos="r" depth="4" NCoef="0" IVar="-1" Cut="0.0000000000000000e+00" cType="1" res="8.5936449468135834e-03" rms="2.5072646141052246e-01" purity="1.0000000000000000e+00" nType="-99"/>
            </Node>
            <Node pos="r" depth="3" NCoef="0" IVar="0" Cut="4.7619048506021500e-02" cType="1" res="-8.7084785103797913e-02" rms="1.8024237453937531e-01" purity="1.0000000000000000e+00" nType="0">
              <Node pos="l" depth="4" NCoef="0" IVar="-1" Cut="0.0000000000000000e+00" cType="1" res="-7.8113235533237457e-02" rms="1.3754579424858093e-01" purity="1.0000000000000000e+00" nType="-99"/>
              <Node pos="r" depth="4" NCoef="0" IVar="-1" Cut="0.0000000000000000e+00" cType="1" res="1.2865415774285793e-02" rms="5.6998506188392639e-02" purity="1.0000000000000000e+00" nType="-99"/>
            </Node>
          </Node>
        </Node>
      </Node>
    </BinaryTree>
    <BinaryTree type="DecisionTree" boostWeight="1.0000000000000000e+00" itree="17">
      <Node pos="s" depth="0" NCoef="0" IVar="4" Cut="2.4396629333496094e+02" cType="1" res="-1.7736985491456636e-10" rms="2.9767113924026489e-01" purity="1.0000000000000000e+00" nType="0">
        <Node pos="l" depth="1" NCoef="0" IVar="4" Cut="3.2503570556640625e+01" cType="1" res="-6.5197446383535862e-04" rms="2.9889523983001709e-01" purity="1.0000000000000000e+00" nType="0">
          <Node pos="l" depth="2" NCoef="0" IVar="4" Cut="1.4946429252624512e+01" cType="1" res="4.1647404432296753e-03" rms="3.1679114699363708e-01" purity="1.0000000000000000e+00" nType="0">
            <Node pos="l" depth="3" NCoef="0" IVar="4" Cut="1.3809523582458496e+01" cType="1" res="-8.8246120139956474e-03" rms="3.2089132070541382e-01" purity="1.0000000000000000e+00" nType="0">
              <Node pos="l" depth="4" NCoef="0" IVar="-1" Cut="0.0000000000000000e+00" cType="1" res="-1.1571215000003576e-03" rms="3.1406906247138977e-01" purity="1.0000000000000000e+00" nType="-99"/>
              <Node pos="r" depth="4" NCoef="0" IVar="-1" Cut="0.0000000000000000e+00" cType="1" res="-2.9968854039907455e-02" rms="4.1670402884483337e-01" purity="1.0000000000000000e+00" nType="-99"/>
            </Node>
            <Node pos="r" depth="3" NCoef="0" IVar="4" Cut="1.9714857101440430e+01" cType="1" res="3.1071256846189499e-02" rms="3.0637758970260620e-01" purity="1.0000000000000000e+00" nType="0">
              <Node pos="l" depth="4" NCoef="0" IVar="-1" Cut="0.0000000000000000e+00" cType="1" res="2.2426294162869453e-02" rms="3.1099253892898560e-01" purity="1.0000000000000000e+00" nType="-99"/>
